//
#include "../include/QuadL.h"

extern void cgqf_f77_(int *rule, int *order, double *x, double *w);

void QuadL(int N, double *x, double *w){
	int rule=1;
	cgqf_f77_(&rule, &N, x, w);
}

void printQuadLRule(int Nmax){
	for (int N=2; N<=Nmax; N*=2){
		double x[N], w[N];
		QuadL(N, x, w);
		printf("double x%d[%d] = {\n", N, N);
		for (int i=0; i<N; i++){
			printf("%21.14E", x[i]);
			if (i<N){
				printf(",\n");
			}else{
				printf("\n");
			}
		}
		printf("};\n\n");
		printf("double w%d[%d] = {\n", N, N);
		for (int i=0; i<N; i++){
			printf("%21.14E", w[i]);
			if (i<N){
				printf(",\n");
			}else{
				printf("\n");
			}
		}
		printf("};\n\n");
	}
}

double x2[2] = {
-5.77350269189626E-01,
 5.77350269189626E-01,
};

double w2[2] = {
 1.00000000000000E+00,
 1.00000000000000E+00,
};

double x4[4] = {
-8.61136311594053E-01,
-3.39981043584856E-01,
 3.39981043584856E-01,
 8.61136311594053E-01,
};

double w4[4] = {
 3.47854845137455E-01,
 6.52145154862547E-01,
 6.52145154862546E-01,
 3.47854845137454E-01,
};

double x8[8] = {
-9.60289856497537E-01,
-7.96666477413627E-01,
-5.25532409916329E-01,
-1.83434642495650E-01,
 1.83434642495650E-01,
 5.25532409916329E-01,
 7.96666477413627E-01,
 9.60289856497536E-01,
};

double w8[8] = {
 1.01228536290376E-01,
 2.22381034453374E-01,
 3.13706645877887E-01,
 3.62683783378362E-01,
 3.62683783378362E-01,
 3.13706645877887E-01,
 2.22381034453374E-01,
 1.01228536290376E-01,
};

double x16[16] = {
-9.89400934991650E-01,
-9.44575023073233E-01,
-8.65631202387832E-01,
-7.55404408355003E-01,
-6.17876244402644E-01,
-4.58016777657228E-01,
-2.81603550779259E-01,
-9.50125098376371E-02,
 9.50125098376375E-02,
 2.81603550779259E-01,
 4.58016777657227E-01,
 6.17876244402644E-01,
 7.55404408355003E-01,
 8.65631202387832E-01,
 9.44575023073232E-01,
 9.89400934991650E-01,
};

double w16[16] = {
 2.71524594117541E-02,
 6.22535239386475E-02,
 9.51585116824932E-02,
 1.24628971255534E-01,
 1.49595988816577E-01,
 1.69156519395003E-01,
 1.82603415044924E-01,
 1.89450610455068E-01,
 1.89450610455070E-01,
 1.82603415044923E-01,
 1.69156519395003E-01,
 1.49595988816576E-01,
 1.24628971255535E-01,
 9.51585116824927E-02,
 6.22535239386479E-02,
 2.71524594117541E-02,
};

double x32[32] = {
-9.97263861849481E-01,
-9.85611511545268E-01,
-9.64762255587506E-01,
-9.34906075937740E-01,
-8.96321155766053E-01,
-8.49367613732570E-01,
-7.94483795967942E-01,
-7.32182118740290E-01,
-6.63044266930215E-01,
-5.87715757240762E-01,
-5.06899908932229E-01,
-4.21351276130636E-01,
-3.31868602282128E-01,
-2.39287362252137E-01,
-1.44471961582796E-01,
-4.83076656877384E-02,
 4.83076656877379E-02,
 1.44471961582797E-01,
 2.39287362252137E-01,
 3.31868602282128E-01,
 4.21351276130635E-01,
 5.06899908932229E-01,
 5.87715757240762E-01,
 6.63044266930215E-01,
 7.32182118740290E-01,
 7.94483795967943E-01,
 8.49367613732570E-01,
 8.96321155766052E-01,
 9.34906075937740E-01,
 9.64762255587507E-01,
 9.85611511545268E-01,
 9.97263861849482E-01,
};

double w32[32] = {
 7.01861000947075E-03,
 1.62743947309056E-02,
 2.53920653092616E-02,
 3.42738629130212E-02,
 4.28358980222266E-02,
 5.09980592623755E-02,
 5.86840934785365E-02,
 6.58222227763618E-02,
 7.23457941088485E-02,
 7.81938957870707E-02,
 8.33119242269467E-02,
 8.76520930044036E-02,
 9.11738786957633E-02,
 9.38443990808042E-02,
 9.56387200792752E-02,
 9.65400885147271E-02,
 9.65400885147275E-02,
 9.56387200792749E-02,
 9.38443990808046E-02,
 9.11738786957628E-02,
 8.76520930044037E-02,
 8.33119242269474E-02,
 7.81938957870695E-02,
 7.23457941088490E-02,
 6.58222227763622E-02,
 5.86840934785361E-02,
 5.09980592623757E-02,
 4.28358980222272E-02,
 3.42738629130216E-02,
 2.53920653092625E-02,
 1.62743947309049E-02,
 7.01861000947000E-03,
};

double x64[64] = {
-9.99305041735772E-01,
-9.96340116771955E-01,
-9.91013371476744E-01,
-9.83336253884626E-01,
-9.73326827789911E-01,
-9.61008799652054E-01,
-9.46411374858403E-01,
-9.29569172131940E-01,
-9.10522137078502E-01,
-8.89315445995113E-01,
-8.65999398154092E-01,
-8.40629296252579E-01,
-8.13265315122797E-01,
-7.83972358943342E-01,
-7.52819907260532E-01,
-7.19881850171611E-01,
-6.85236313054233E-01,
-6.48965471254657E-01,
-6.11155355172393E-01,
-5.71895646202634E-01,
-5.31279464019895E-01,
-4.89403145707053E-01,
-4.46366017253464E-01,
-4.02270157963992E-01,
-3.57220158337669E-01,
-3.11322871990211E-01,
-2.64687162208767E-01,
-2.17423643740007E-01,
-1.69644420423993E-01,
-1.21462819296121E-01,
-7.29931217877991E-02,
-2.43502926634245E-02,
 2.43502926634242E-02,
 7.29931217877987E-02,
 1.21462819296120E-01,
 1.69644420423993E-01,
 2.17423643740007E-01,
 2.64687162208767E-01,
 3.11322871990211E-01,
 3.57220158337668E-01,
 4.02270157963992E-01,
 4.46366017253464E-01,
 4.89403145707053E-01,
 5.31279464019894E-01,
 5.71895646202634E-01,
 6.11155355172392E-01,
 6.48965471254657E-01,
 6.85236313054233E-01,
 7.19881850171611E-01,
 7.52819907260531E-01,
 7.83972358943341E-01,
 8.13265315122797E-01,
 8.40629296252580E-01,
 8.65999398154093E-01,
 8.89315445995114E-01,
 9.10522137078503E-01,
 9.29569172131939E-01,
 9.46411374858402E-01,
 9.61008799652054E-01,
 9.73326827789910E-01,
 9.83336253884626E-01,
 9.91013371476744E-01,
 9.96340116771955E-01,
 9.99305041735772E-01,
};

double w64[64] = {
 1.78328072169681E-03,
 4.14703326056229E-03,
 6.50445796897864E-03,
 8.84675982636278E-03,
 1.11681394601316E-02,
 1.34630478967193E-02,
 1.57260304760252E-02,
 1.79517157756968E-02,
 2.01348231535306E-02,
 2.22701738083827E-02,
 2.43527025687109E-02,
 2.63774697150546E-02,
 2.83396726142593E-02,
 3.02346570724024E-02,
 3.20579283548521E-02,
 3.38051618371411E-02,
 3.54722132568829E-02,
 3.70551285402399E-02,
 3.85501531786163E-02,
 3.99537411327204E-02,
 4.12625632426232E-02,
 4.24735151236535E-02,
 4.35837245293237E-02,
 4.45905581637559E-02,
 4.54916279274187E-02,
 4.62847965813145E-02,
 4.69681828162095E-02,
 4.75401657148305E-02,
 4.79993885964589E-02,
 4.83447622348029E-02,
 4.85754674415024E-02,
 4.86909570091388E-02,
 4.86909570091391E-02,
 4.85754674415043E-02,
 4.83447622348030E-02,
 4.79993885964576E-02,
 4.75401657148309E-02,
 4.69681828162093E-02,
 4.62847965813144E-02,
 4.54916279274188E-02,
 4.45905581637564E-02,
 4.35837245293238E-02,
 4.24735151236540E-02,
 4.12625632426236E-02,
 3.99537411327209E-02,
 3.85501531786159E-02,
 3.70551285402400E-02,
 3.54722132568814E-02,
 3.38051618371413E-02,
 3.20579283548516E-02,
 3.02346570724017E-02,
 2.83396726142591E-02,
 2.63774697150544E-02,
 2.43527025687122E-02,
 2.22701738083845E-02,
 2.01348231535299E-02,
 1.79517157756973E-02,
 1.57260304760252E-02,
 1.34630478967185E-02,
 1.11681394601307E-02,
 8.84675982636371E-03,
 6.50445796897819E-03,
 4.14703326056236E-03,
 1.78328072169643E-03,
};

double x128[128] = {
-9.99824887947132E-01,
-9.99077459977377E-01,
-9.97733248625515E-01,
-9.95792758534981E-01,
-9.93257112900213E-01,
-9.90127818491734E-01,
-9.86406742724586E-01,
-9.82096108435719E-01,
-9.77198491463908E-01,
-9.71716818747137E-01,
-9.65654366431966E-01,
-9.59014757853700E-01,
-9.51801961341265E-01,
-9.44020287830220E-01,
-9.35674388277916E-01,
-9.26769250878948E-01,
-9.17310198080961E-01,
-9.07302883401757E-01,
-8.96753288049158E-01,
-8.85667717345397E-01,
-8.74052796958032E-01,
-8.61915468939548E-01,
-8.49262987577969E-01,
-8.36102915060906E-01,
-8.22443116955644E-01,
-8.08291757507914E-01,
-7.93657294762194E-01,
-7.78548475506412E-01,
-7.62974330044095E-01,
-7.46944166797062E-01,
-7.30467566741908E-01,
-7.13554377683587E-01,
-6.96214708369514E-01,
-6.78458922447720E-01,
-6.60297632272646E-01,
-6.41741692562307E-01,
-6.22802193910584E-01,
-6.03490456158548E-01,
-5.83818021628763E-01,
-5.63796648226618E-01,
-5.43438302412810E-01,
-5.22755152051176E-01,
-5.01759559136144E-01,
-4.80464072404173E-01,
-4.58881419833552E-01,
-4.37024501037104E-01,
-4.14906379552275E-01,
-3.92540275033268E-01,
-3.69939555349859E-01,
-3.47117728597636E-01,
-3.24088435024414E-01,
-3.00865438877677E-01,
-2.77462620177904E-01,
-2.53893966422694E-01,
-2.30173564226660E-01,
-2.06315590902079E-01,
-1.82334305985337E-01,
-1.58244042714225E-01,
-1.34059199461187E-01,
-1.09794231127643E-01,
-8.54636405045157E-02,
-6.10819696041394E-02,
-3.66637909687329E-02,
-1.22236989606157E-02,
 1.22236989606161E-02,
 3.66637909687337E-02,
 6.10819696041403E-02,
 8.54636405045158E-02,
 1.09794231127644E-01,
 1.34059199461188E-01,
 1.58244042714225E-01,
 1.82334305985337E-01,
 2.06315590902080E-01,
 2.30173564226661E-01,
 2.53893966422694E-01,
 2.77462620177905E-01,
 3.00865438877677E-01,
 3.24088435024414E-01,
 3.47117728597635E-01,
 3.69939555349859E-01,
 3.92540275033268E-01,
 4.14906379552275E-01,
 4.37024501037104E-01,
 4.58881419833552E-01,
 4.80464072404172E-01,
 5.01759559136144E-01,
 5.22755152051176E-01,
 5.43438302412810E-01,
 5.63796648226618E-01,
 5.83818021628763E-01,
 6.03490456158549E-01,
 6.22802193910585E-01,
 6.41741692562308E-01,
 6.60297632272646E-01,
 6.78458922447719E-01,
 6.96214708369514E-01,
 7.13554377683588E-01,
 7.30467566741909E-01,
 7.46944166797062E-01,
 7.62974330044094E-01,
 7.78548475506412E-01,
 7.93657294762193E-01,
 8.08291757507914E-01,
 8.22443116955644E-01,
 8.36102915060907E-01,
 8.49262987577968E-01,
 8.61915468939549E-01,
 8.74052796958032E-01,
 8.85667717345397E-01,
 8.96753288049158E-01,
 9.07302883401757E-01,
 9.17310198080961E-01,
 9.26769250878948E-01,
 9.35674388277916E-01,
 9.44020287830220E-01,
 9.51801961341264E-01,
 9.59014757853700E-01,
 9.65654366431965E-01,
 9.71716818747136E-01,
 9.77198491463907E-01,
 9.82096108435719E-01,
 9.86406742724586E-01,
 9.90127818491735E-01,
 9.93257112900213E-01,
 9.95792758534981E-01,
 9.97733248625514E-01,
 9.99077459977376E-01,
 9.99824887947132E-01,
};

double w128[128] = {
 4.49380960292366E-04,
 1.04581267933915E-03,
 1.64250301866914E-03,
 2.23828843096334E-03,
 2.83275147145821E-03,
 3.42552604090965E-03,
 4.01625498373915E-03,
 4.60458425670227E-03,
 5.19016183267588E-03,
 5.77263754286541E-03,
 6.35166316170720E-03,
 6.92689256689943E-03,
 7.49798192563490E-03,
 8.06458989048598E-03,
 8.62637779861796E-03,
 9.18300987166038E-03,
 9.73415341500678E-03,
 1.02794790158319E-02,
 1.08186607395030E-02,
 1.13513763240803E-02,
 1.18773073727408E-02,
 1.23961395439502E-02,
 1.29075627392678E-02,
 1.34112712886150E-02,
 1.39069641329529E-02,
 1.43943450041667E-02,
 1.48731226021469E-02,
 1.53430107688652E-02,
 1.58037286594003E-02,
 1.62550009097846E-02,
 1.66965578015896E-02,
 1.71281354231113E-02,
 1.75494758271180E-02,
 1.79603271850081E-02,
 1.83604439373318E-02,
 1.87495869405448E-02,
 1.91275236099514E-02,
 1.94940280587059E-02,
 1.98488812328311E-02,
 2.01918710421307E-02,
 2.05227924869594E-02,
 2.08414477807517E-02,
 2.11476464682209E-02,
 2.14412055392083E-02,
 2.17219495380524E-02,
 2.19897106684601E-02,
 2.22443288937997E-02,
 2.24856520327456E-02,
 2.27135358502352E-02,
 2.29278441436873E-02,
 2.31284488243879E-02,
 2.33152299940628E-02,
 2.34880760165356E-02,
 2.36468835844479E-02,
 2.37915577810031E-02,
 2.39220121367039E-02,
 2.40381686810238E-02,
 2.41399579890189E-02,
 2.42273192228161E-02,
 2.43002001679714E-02,
 2.43585572646902E-02,
 2.44023556338506E-02,
 2.44315690978502E-02,
 2.44461801962612E-02,
 2.44461801962626E-02,
 2.44315690978493E-02,
 2.44023556338498E-02,
 2.43585572646913E-02,
 2.43002001679714E-02,
 2.42273192228152E-02,
 2.41399579890203E-02,
 2.40381686810257E-02,
 2.39220121367035E-02,
 2.37915577810037E-02,
 2.36468835844466E-02,
 2.34880760165344E-02,
 2.33152299940627E-02,
 2.31284488243860E-02,
 2.29278441436871E-02,
 2.27135358502360E-02,
 2.24856520327457E-02,
 2.22443288937998E-02,
 2.19897106684606E-02,
 2.17219495380521E-02,
 2.14412055392090E-02,
 2.11476464682218E-02,
 2.08414477807500E-02,
 2.05227924869610E-02,
 2.01918710421303E-02,
 1.98488812328295E-02,
 1.94940280587065E-02,
 1.91275236099509E-02,
 1.87495869405452E-02,
 1.83604439373303E-02,
 1.79603271850088E-02,
 1.75494758271173E-02,
 1.71281354231110E-02,
 1.66965578015899E-02,
 1.62550009097864E-02,
 1.58037286593995E-02,
 1.53430107688648E-02,
 1.48731226021474E-02,
 1.43943450041663E-02,
 1.39069641329516E-02,
 1.34112712886163E-02,
 1.29075627392675E-02,
 1.23961395439505E-02,
 1.18773073727404E-02,
 1.13513763240803E-02,
 1.08186607395027E-02,
 1.02794790158323E-02,
 9.73415341500630E-03,
 9.18300987166141E-03,
 8.62637779861771E-03,
 8.06458989048679E-03,
 7.49798192563531E-03,
 6.92689256689843E-03,
 6.35166316170663E-03,
 5.77263754286605E-03,
 5.19016183267601E-03,
 4.60458425670195E-03,
 4.01625498373814E-03,
 3.42552604091020E-03,
 2.83275147145842E-03,
 2.23828843096288E-03,
 1.64250301866876E-03,
 1.04581267934017E-03,
 4.49380960292415E-04,
};

double x256[256] = {
-9.99956050018992E-01,
-9.99768437409263E-01,
-9.99430937466262E-01,
-9.98943525843409E-01,
-9.98306266473007E-01,
-9.97519252756721E-01,
-9.96582602023382E-01,
-9.95496454481097E-01,
-9.94260972922410E-01,
-9.92876342608823E-01,
-9.91342771207583E-01,
-9.89660488745066E-01,
-9.87829747564861E-01,
-9.85850822286126E-01,
-9.83724009760315E-01,
-9.81449629025465E-01,
-9.79028021257622E-01,
-9.76459549719234E-01,
-9.73744599704371E-01,
-9.70883578480743E-01,
-9.67876915228490E-01,
-9.64725060975707E-01,
-9.61428488530733E-01,
-9.57987692411179E-01,
-9.54403188769716E-01,
-9.50675515316629E-01,
-9.46805231239128E-01,
-9.42792917117463E-01,
-9.38639174837815E-01,
-9.34344627502004E-01,
-9.29909919334007E-01,
-9.25335715583317E-01,
-9.20622702425147E-01,
-9.15771586857490E-01,
-9.10783096595066E-01,
-9.05657979960146E-01,
-9.00397005770304E-01,
-8.95000963223086E-01,
-8.89470661777612E-01,
-8.83806931033159E-01,
-8.78010620604707E-01,
-8.72082599995489E-01,
-8.66023758466555E-01,
-8.59835004903377E-01,
-8.53517267679503E-01,
-8.47071494517296E-01,
-8.40498652345763E-01,
-8.33799727155505E-01,
-8.26975723850813E-01,
-8.20027666098917E-01,
-8.12956596176432E-01,
-8.05763574812999E-01,
-7.98449681032172E-01,
-7.91016011989546E-01,
-7.83463682808184E-01,
-7.75793826411326E-01,
-7.68007593352445E-01,
-7.60106151642655E-01,
-7.52090686575492E-01,
-7.43962400549111E-01,
-7.35722512885918E-01,
-7.27372259649652E-01,
-7.18912893459971E-01,
-7.10345683304543E-01,
-7.01671914348685E-01,
-6.92892887742577E-01,
-6.84009920426076E-01,
-6.75024344931162E-01,
-6.65937509182048E-01,
-6.56750776292973E-01,
-6.47465524363724E-01,
-6.38083146272911E-01,
-6.28605049469015E-01,
-6.19032655759260E-01,
-6.09367401096334E-01,
-5.99610735362968E-01,
-5.89764122154454E-01,
-5.79829038559083E-01,
-5.69806974936568E-01,
-5.59699434694480E-01,
-5.49507934062718E-01,
-5.39234001866059E-01,
-5.28879179294822E-01,
-5.18445019673674E-01,
-5.07933088228616E-01,
-4.97344961852181E-01,
-4.86682228866890E-01,
-4.75946488786983E-01,
-4.65139352078479E-01,
-4.54262439917591E-01,
-4.43317383947527E-01,
-4.32305826033741E-01,
-4.21229418017623E-01,
-4.10089821468717E-01,
-3.98888707435459E-01,
-3.87627756194516E-01,
-3.76308656998716E-01,
-3.64933107823654E-01,
-3.53502815112970E-01,
-3.42019493522372E-01,
-3.30484865662417E-01,
-3.18900661840106E-01,
-3.07268619799319E-01,
-2.95590484460136E-01,
-2.83868007657082E-01,
-2.72102947876337E-01,
-2.60297069991943E-01,
-2.48452145001057E-01,
-2.36569949758284E-01,
-2.24652266709132E-01,
-2.12700883622626E-01,
-2.00717593323127E-01,
-1.88704193421389E-01,
-1.76662486044902E-01,
-1.64594277567554E-01,
-1.52501378338656E-01,
-1.40385602411376E-01,
-1.28248767270607E-01,
-1.16092693560332E-01,
-1.03919204810510E-01,
-9.17301271635192E-02,
-7.95272891002332E-02,
-6.73125211657169E-02,
-5.50876556946344E-02,
-4.28545265363795E-02,
-3.06149687799794E-02,
-1.83708184788141E-02,
-6.12391237518932E-03,
 6.12391237518973E-03,
 1.83708184788134E-02,
 3.06149687799786E-02,
 4.28545265363793E-02,
 5.50876556946335E-02,
 6.73125211657161E-02,
 7.95272891002328E-02,
 9.17301271635192E-02,
 1.03919204810509E-01,
 1.16092693560332E-01,
 1.28248767270607E-01,
 1.40385602411376E-01,
 1.52501378338656E-01,
 1.64594277567554E-01,
 1.76662486044901E-01,
 1.88704193421389E-01,
 2.00717593323126E-01,
 2.12700883622626E-01,
 2.24652266709132E-01,
 2.36569949758284E-01,
 2.48452145001057E-01,
 2.60297069991943E-01,
 2.72102947876336E-01,
 2.83868007657082E-01,
 2.95590484460136E-01,
 3.07268619799319E-01,
 3.18900661840106E-01,
 3.30484865662417E-01,
 3.42019493522371E-01,
 3.53502815112970E-01,
 3.64933107823654E-01,
 3.76308656998717E-01,
 3.87627756194516E-01,
 3.98888707435459E-01,
 4.10089821468717E-01,
 4.21229418017624E-01,
 4.32305826033741E-01,
 4.43317383947527E-01,
 4.54262439917590E-01,
 4.65139352078480E-01,
 4.75946488786983E-01,
 4.86682228866890E-01,
 4.97344961852182E-01,
 5.07933088228616E-01,
 5.18445019673675E-01,
 5.28879179294822E-01,
 5.39234001866059E-01,
 5.49507934062719E-01,
 5.59699434694481E-01,
 5.69806974936569E-01,
 5.79829038559083E-01,
 5.89764122154455E-01,
 5.99610735362968E-01,
 6.09367401096334E-01,
 6.19032655759261E-01,
 6.28605049469015E-01,
 6.38083146272911E-01,
 6.47465524363726E-01,
 6.56750776292974E-01,
 6.65937509182049E-01,
 6.75024344931163E-01,
 6.84009920426076E-01,
 6.92892887742577E-01,
 7.01671914348685E-01,
 7.10345683304544E-01,
 7.18912893459972E-01,
 7.27372259649652E-01,
 7.35722512885918E-01,
 7.43962400549112E-01,
 7.52090686575492E-01,
 7.60106151642655E-01,
 7.68007593352446E-01,
 7.75793826411326E-01,
 7.83463682808184E-01,
 7.91016011989546E-01,
 7.98449681032171E-01,
 8.05763574812999E-01,
 8.12956596176432E-01,
 8.20027666098918E-01,
 8.26975723850813E-01,
 8.33799727155505E-01,
 8.40498652345763E-01,
 8.47071494517296E-01,
 8.53517267679503E-01,
 8.59835004903377E-01,
 8.66023758466555E-01,
 8.72082599995489E-01,
 8.78010620604707E-01,
 8.83806931033159E-01,
 8.89470661777611E-01,
 8.95000963223085E-01,
 9.00397005770304E-01,
 9.05657979960145E-01,
 9.10783096595065E-01,
 9.15771586857491E-01,
 9.20622702425146E-01,
 9.25335715583317E-01,
 9.29909919334006E-01,
 9.34344627502003E-01,
 9.38639174837815E-01,
 9.42792917117462E-01,
 9.46805231239128E-01,
 9.50675515316628E-01,
 9.54403188769717E-01,
 9.57987692411179E-01,
 9.61428488530732E-01,
 9.64725060975707E-01,
 9.67876915228490E-01,
 9.70883578480743E-01,
 9.73744599704371E-01,
 9.76459549719234E-01,
 9.79028021257622E-01,
 9.81449629025465E-01,
 9.83724009760315E-01,
 9.85850822286126E-01,
 9.87829747564861E-01,
 9.89660488745065E-01,
 9.91342771207584E-01,
 9.92876342608822E-01,
 9.94260972922410E-01,
 9.95496454481097E-01,
 9.96582602023382E-01,
 9.97519252756721E-01,
 9.98306266473007E-01,
 9.98943525843409E-01,
 9.99430937466262E-01,
 9.99768437409263E-01,
 9.99956050018992E-01,
};

double w256[256] = {
 1.12789017822484E-04,
 2.62534944296820E-04,
 4.12463254425967E-04,
 5.62348954031590E-04,
 7.12154163472518E-04,
 8.61853701420157E-04,
 1.01142439320767E-03,
 1.16084355756807E-03,
 1.31008868190389E-03,
 1.45913733331023E-03,
 1.60796713074820E-03,
 1.75655573633102E-03,
 1.90488085350026E-03,
 2.05292022796646E-03,
 2.20065164983975E-03,
 2.34805295632724E-03,
 2.49510203470341E-03,
 2.64177682542767E-03,
 2.78805532532715E-03,
 2.93391559082963E-03,
 3.07933574119923E-03,
 3.22429396179370E-03,
 3.36876850731588E-03,
 3.51273770505665E-03,
 3.65617995814219E-03,
 3.79907374876680E-03,
 3.94139764140857E-03,
 4.08313028605296E-03,
 4.22425042138194E-03,
 4.36473687796699E-03,
 4.50456858144801E-03,
 4.64372455568036E-03,
 4.78218392589320E-03,
 4.91992592181413E-03,
 5.05692988078645E-03,
 5.19317525086941E-03,
 5.32864159391614E-03,
 5.46330858864521E-03,
 5.59715603368166E-03,
 5.73016385060196E-03,
 5.86231208692267E-03,
 5.99358091911521E-03,
 6.12395065556821E-03,
 6.25340173954129E-03,
 6.38191475210878E-03,
 6.50947041505382E-03,
 6.63604959378165E-03,
 6.76163330017400E-03,
 6.88620269544596E-03,
 7.00973909296948E-03,
 7.13222396107442E-03,
 7.25363892583412E-03,
 7.37396577381271E-03,
 7.49318645480520E-03,
 7.61128308454579E-03,
 7.72823794738139E-03,
 7.84403349894010E-03,
 7.95865236875395E-03,
 8.07207736287396E-03,
 8.18429146643808E-03,
 8.29527784623535E-03,
 8.40501985322089E-03,
 8.51350102502346E-03,
 8.62070508840114E-03,
 8.72661596169859E-03,
 8.83121775724865E-03,
 8.93449478375787E-03,
 9.03643154866300E-03,
 9.13701276045167E-03,
 9.23622333095550E-03,
 9.33404837762500E-03,
 9.43047322573625E-03,
 9.52548341062978E-03,
 9.61906467984013E-03,
 9.71120299526657E-03,
 9.80188453525876E-03,
 9.89109569669467E-03,
 9.97882309703498E-03,
 1.00650535763072E-02,
 1.01497741990932E-02,
 1.02329722564788E-02,
 1.03146352679342E-02,
 1.03947509832119E-02,
 1.04733073841693E-02,
 1.05502926865820E-02,
 1.06256953418967E-02,
 1.06995040389798E-02,
 1.07717077058046E-02,
 1.08422955111153E-02,
 1.09112568660494E-02,
 1.09785814257300E-02,
 1.10442590908135E-02,
 1.11082800090086E-02,
 1.11706345765542E-02,
 1.12313134396509E-02,
 1.12903074958754E-02,
 1.13476078955457E-02,
 1.14032060430379E-02,
 1.14570935980901E-02,
 1.15092624770403E-02,
 1.15597048540428E-02,
 1.16084131622531E-02,
 1.16553800949448E-02,
 1.17005986066216E-02,
 1.17440619140603E-02,
 1.17857634973435E-02,
 1.18256971008237E-02,
 1.18638567340712E-02,
 1.19002366727661E-02,
 1.19348314595646E-02,
 1.19676359049062E-02,
 1.19986450878057E-02,
 1.20278543565836E-02,
 1.20552593295603E-02,
 1.20808558957237E-02,
 1.21046402153407E-02,
 1.21266087205267E-02,
 1.21467581157958E-02,
 1.21650853785352E-02,
 1.21815877594824E-02,
 1.21962627831148E-02,
 1.22091082480371E-02,
 1.22201222273037E-02,
 1.22293030687106E-02,
 1.22366493950390E-02,
 1.22421601042727E-02,
 1.22458343697471E-02,
 1.22476716402900E-02,
 1.22476716402891E-02,
 1.22458343697478E-02,
 1.22421601042724E-02,
 1.22366493950406E-02,
 1.22293030687100E-02,
 1.22201222273033E-02,
 1.22091082480381E-02,
 1.21962627831138E-02,
 1.21815877594828E-02,
 1.21650853785349E-02,
 1.21467581157942E-02,
 1.21266087205274E-02,
 1.21046402153405E-02,
 1.20808558957243E-02,
 1.20552593295608E-02,
 1.20278543565822E-02,
 1.19986450878064E-02,
 1.19676359049064E-02,
 1.19348314595639E-02,
 1.19002366727666E-02,
 1.18638567340706E-02,
 1.18256971008247E-02,
 1.17857634973437E-02,
 1.17440619140607E-02,
 1.17005986066207E-02,
 1.16553800949451E-02,
 1.16084131622532E-02,
 1.15597048540440E-02,
 1.15092624770385E-02,
 1.14570935980914E-02,
 1.14032060430384E-02,
 1.13476078955451E-02,
 1.12903074958740E-02,
 1.12313134396496E-02,
 1.11706345765536E-02,
 1.11082800090101E-02,
 1.10442590908148E-02,
 1.09785814257297E-02,
 1.09112568660493E-02,
 1.08422955111146E-02,
 1.07717077058044E-02,
 1.06995040389798E-02,
 1.06256953418959E-02,
 1.05502926865821E-02,
 1.04733073841700E-02,
 1.03947509832128E-02,
 1.03146352679341E-02,
 1.02329722564788E-02,
 1.01497741990946E-02,
 1.00650535763062E-02,
 9.97882309703421E-03,
 9.89109569669529E-03,
 9.80188453525816E-03,
 9.71120299526632E-03,
 9.61906467984049E-03,
 9.52548341062864E-03,
 9.43047322573720E-03,
 9.33404837762462E-03,
 9.23622333095699E-03,
 9.13701276045136E-03,
 9.03643154866210E-03,
 8.93449478375890E-03,
 8.83121775724826E-03,
 8.72661596169833E-03,
 8.62070508840209E-03,
 8.51350102502153E-03,
 8.40501985322090E-03,
 8.29527784623484E-03,
 8.18429146643710E-03,
 8.07207736287343E-03,
 7.95865236875547E-03,
 7.84403349893991E-03,
 7.72823794738120E-03,
 7.61128308454532E-03,
 7.49318645480672E-03,
 7.37396577381162E-03,
 7.25363892583519E-03,
 7.13222396107615E-03,
 7.00973909297037E-03,
 6.88620269544736E-03,
 6.76163330017428E-03,
 6.63604959378212E-03,
 6.50947041505261E-03,
 6.38191475210834E-03,
 6.25340173954113E-03,
 6.12395065556865E-03,
 5.99358091911407E-03,
 5.86231208692343E-03,
 5.73016385060101E-03,
 5.59715603368287E-03,
 5.46330858864476E-03,
 5.32864159391608E-03,
 5.19317525086844E-03,
 5.05692988078642E-03,
 4.91992592181512E-03,
 4.78218392589207E-03,
 4.64372455568021E-03,
 4.50456858144837E-03,
 4.36473687796696E-03,
 4.22425042138108E-03,
 4.08313028605343E-03,
 3.94139764140743E-03,
 3.79907374876518E-03,
 3.65617995814189E-03,
 3.51273770505617E-03,
 3.36876850731616E-03,
 3.22429396179530E-03,
 3.07933574120004E-03,
 2.93391559082974E-03,
 2.78805532532754E-03,
 2.64177682542813E-03,
 2.49510203470410E-03,
 2.34805295632704E-03,
 2.20065164984033E-03,
 2.05292022796621E-03,
 1.90488085350027E-03,
 1.75655573633089E-03,
 1.60796713074902E-03,
 1.45913733330992E-03,
 1.31008868190286E-03,
 1.16084355756638E-03,
 1.01142439320984E-03,
 8.61853701420441E-04,
 7.12154163472751E-04,
 5.62348954031264E-04,
 4.12463254426180E-04,
 2.62534944296249E-04,
 1.12789017822553E-04,
};

double x512[512] = {
-9.99988990984382E-01,
-9.99941994606846E-01,
-9.99857446369980E-01,
-9.99735330671044E-01,
-9.99575649798312E-01,
-9.99378409202601E-01,
-9.99143616112379E-01,
-9.98871279275450E-01,
-9.98561408890040E-01,
-9.98214016581612E-01,
-9.97829115393563E-01,
-9.97406719782850E-01,
-9.96946845617604E-01,
-9.96449510175577E-01,
-9.95914732142977E-01,
-9.95342531613466E-01,
-9.94732930087228E-01,
-9.94085950470055E-01,
-9.93401617072415E-01,
-9.92679955608486E-01,
-9.91920993195172E-01,
-9.91124758351048E-01,
-9.90291280995287E-01,
-9.89420592446515E-01,
-9.88512725421634E-01,
-9.87567714034583E-01,
-9.86585593795049E-01,
-9.85566401607138E-01,
-9.84510175767978E-01,
-9.83416955966284E-01,
-9.82286783280860E-01,
-9.81119700179057E-01,
-9.79915750515178E-01,
-9.78674979528826E-01,
-9.77397433843206E-01,
-9.76083161463370E-01,
-9.74732211774416E-01,
-9.73344635539632E-01,
-9.71920484898584E-01,
-9.70459813365159E-01,
-9.68962675825557E-01,
-9.67429128536224E-01,
-9.65859229121741E-01,
-9.64253036572657E-01,
-9.62610611243271E-01,
-9.60932014849368E-01,
-9.59217310465896E-01,
-9.57466562524601E-01,
-9.55679836811598E-01,
-9.53857200464905E-01,
-9.51998721971919E-01,
-9.50104471166842E-01,
-9.48174519228055E-01,
-9.46208938675448E-01,
-9.44207803367690E-01,
-9.42171188499459E-01,
-9.40099170598609E-01,
-9.37991827523303E-01,
-9.35849238459081E-01,
-9.33671483915886E-01,
-9.31458645725040E-01,
-9.29210807036171E-01,
-9.26928052314082E-01,
-9.24610467335586E-01,
-9.22258139186272E-01,
-9.19871156257244E-01,
-9.17449608241790E-01,
-9.14993586132023E-01,
-9.12503182215446E-01,
-9.09978490071499E-01,
-9.07419604568035E-01,
-9.04826621857757E-01,
-9.02199639374607E-01,
-8.99538755830098E-01,
-8.96844071209614E-01,
-8.94115686768646E-01,
-8.91353705028992E-01,
-8.88558229774902E-01,
-8.85729366049176E-01,
-8.82867220149221E-01,
-8.79971899623057E-01,
-8.77043513265272E-01,
-8.74082171112937E-01,
-8.71087984441469E-01,
-8.68061065760454E-01,
-8.65001528809412E-01,
-8.61909488553529E-01,
-8.58785061179337E-01,
-8.55628364090346E-01,
-8.52439515902633E-01,
-8.49218636440383E-01,
-8.45965846731391E-01,
-8.42681269002511E-01,
-8.39365026675063E-01,
-8.36017244360198E-01,
-8.32638047854211E-01,
-8.29227564133821E-01,
-8.25785921351393E-01,
-8.22313248830123E-01,
-8.18809677059187E-01,
-8.15275337688825E-01,
-8.11710363525404E-01,
-8.08114888526424E-01,
-8.04489047795484E-01,
-8.00832977577207E-01,
-7.97146815252118E-01,
-7.93430699331483E-01,
-7.89684769452107E-01,
-7.85909166371083E-01,
-7.82104031960504E-01,
-7.78269509202134E-01,
-7.74405742182032E-01,
-7.70512876085141E-01,
-7.66591057189830E-01,
-7.62640432862400E-01,
-7.58661151551545E-01,
-7.54653362782772E-01,
-7.50617217152788E-01,
-7.46552866323834E-01,
-7.42460463017992E-01,
-7.38340161011444E-01,
-7.34192115128693E-01,
-7.30016481236746E-01,
-7.25813416239259E-01,
-7.21583078070637E-01,
-7.17325625690105E-01,
-7.13041219075728E-01,
-7.08730019218407E-01,
-7.04392188115823E-01,
-7.00027888766357E-01,
-6.95637285162957E-01,
-6.91220542286981E-01,
-6.86777826101999E-01,
-6.82309303547551E-01,
-6.77815142532878E-01,
-6.73295511930614E-01,
-6.68750581570438E-01,
-6.64180522232690E-01,
-6.59585505641959E-01,
-6.54965704460630E-01,
-6.50321292282389E-01,
-6.45652443625709E-01,
-6.40959333927286E-01,
-6.36242139535451E-01,
-6.31501037703541E-01,
-6.26736206583240E-01,
-6.21947825217879E-01,
-6.17136073535721E-01,
-6.12301132343187E-01,
-6.07443183318068E-01,
-6.02562409002700E-01,
-5.97658992797098E-01,
-5.92733118952072E-01,
-5.87784972562300E-01,
-5.82814739559373E-01,
-5.77822606704811E-01,
-5.72808761583036E-01,
-5.67773392594340E-01,
-5.62716688947788E-01,
-5.57638840654123E-01,
-5.52540038518610E-01,
-5.47420474133887E-01,
-5.42280339872746E-01,
-5.37119828880918E-01,
-5.31939135069807E-01,
-5.26738453109208E-01,
-5.21517978419991E-01,
-5.16277907166757E-01,
-5.11018436250469E-01,
-5.05739763301054E-01,
-5.00442086669965E-01,
-4.95125605422749E-01,
-4.89790519331549E-01,
-4.84437028867609E-01,
-4.79065335193729E-01,
-4.73675640156717E-01,
-4.68268146279800E-01,
-4.62843056755015E-01,
-4.57400575435570E-01,
-4.51940906828194E-01,
-4.46464256085437E-01,
-4.40970828997976E-01,
-4.35460831986874E-01,
-4.29934472095826E-01,
-4.24391956983378E-01,
-4.18833494915126E-01,
-4.13259294755887E-01,
-4.07669565961856E-01,
-4.02064518572727E-01,
-3.96444363203811E-01,
-3.90809311038113E-01,
-3.85159573818402E-01,
-3.79495363839250E-01,
-3.73816893939063E-01,
-3.68124377492073E-01,
-3.62418028400326E-01,
-3.56698061085646E-01,
-3.50964690481571E-01,
-3.45218132025287E-01,
-3.39458601649521E-01,
-3.33686315774437E-01,
-3.27901491299498E-01,
-3.22104345595318E-01,
-3.16295096495494E-01,
-3.10473962288420E-01,
-3.04641161709084E-01,
-2.98796913930851E-01,
-2.92941438557224E-01,
-2.87074955613598E-01,
-2.81197685538985E-01,
-2.75309849177735E-01,
-2.69411667771239E-01,
-2.63503362949610E-01,
-2.57585156723363E-01,
-2.51657271475064E-01,
-2.45719929950979E-01,
-2.39773355252707E-01,
-2.33817770828786E-01,
-2.27853400466310E-01,
-2.21880468282509E-01,
-2.15899198716336E-01,
-2.09909816520024E-01,
-2.03912546750653E-01,
-1.97907614761681E-01,
-1.91895246194484E-01,
-1.85875666969876E-01,
-1.79849103279615E-01,
-1.73815781577914E-01,
-1.67775928572916E-01,
-1.61729771218192E-01,
-1.55677536704202E-01,
-1.49619452449761E-01,
-1.43555746093496E-01,
-1.37486645485288E-01,
-1.31412378677714E-01,
-1.25333173917474E-01,
-1.19249259636820E-01,
-1.13160864444967E-01,
-1.07068217119503E-01,
-1.00971546597797E-01,
-9.48710819683929E-02,
-8.87670524624015E-02,
-8.26596874448877E-02,
-7.65492164062515E-02,
-7.04358689536055E-02,
-6.43198748021451E-02,
-5.82014637665188E-02,
-5.20808657521927E-02,
-4.59583107468096E-02,
-3.98340288115488E-02,
-3.37082500724816E-02,
-2.75812047119203E-02,
-2.14531229597753E-02,
-1.53242350848988E-02,
-9.19477138643384E-03,
-3.06496218515998E-03,
 3.06496218515901E-03,
 9.19477138643205E-03,
 1.53242350848972E-02,
 2.14531229597741E-02,
 2.75812047119191E-02,
 3.37082500724801E-02,
 3.98340288115481E-02,
 4.59583107468089E-02,
 5.20808657521919E-02,
 5.82014637665178E-02,
 6.43198748021439E-02,
 7.04358689536040E-02,
 7.65492164062505E-02,
 8.26596874448866E-02,
 8.87670524624003E-02,
 9.48710819683918E-02,
 1.00971546597796E-01,
 1.07068217119502E-01,
 1.13160864444966E-01,
 1.19249259636820E-01,
 1.25333173917474E-01,
 1.31412378677714E-01,
 1.37486645485288E-01,
 1.43555746093496E-01,
 1.49619452449761E-01,
 1.55677536704201E-01,
 1.61729771218192E-01,
 1.67775928572916E-01,
 1.73815781577913E-01,
 1.79849103279615E-01,
 1.85875666969875E-01,
 1.91895246194484E-01,
 1.97907614761680E-01,
 2.03912546750652E-01,
 2.09909816520023E-01,
 2.15899198716335E-01,
 2.21880468282509E-01,
 2.27853400466309E-01,
 2.33817770828786E-01,
 2.39773355252706E-01,
 2.45719929950979E-01,
 2.51657271475063E-01,
 2.57585156723362E-01,
 2.63503362949610E-01,
 2.69411667771239E-01,
 2.75309849177735E-01,
 2.81197685538985E-01,
 2.87074955613598E-01,
 2.92941438557224E-01,
 2.98796913930851E-01,
 3.04641161709084E-01,
 3.10473962288420E-01,
 3.16295096495494E-01,
 3.22104345595319E-01,
 3.27901491299498E-01,
 3.33686315774437E-01,
 3.39458601649521E-01,
 3.45218132025287E-01,
 3.50964690481572E-01,
 3.56698061085645E-01,
 3.62418028400326E-01,
 3.68124377492073E-01,
 3.73816893939063E-01,
 3.79495363839251E-01,
 3.85159573818401E-01,
 3.90809311038112E-01,
 3.96444363203811E-01,
 4.02064518572728E-01,
 4.07669565961856E-01,
 4.13259294755888E-01,
 4.18833494915127E-01,
 4.24391956983379E-01,
 4.29934472095827E-01,
 4.35460831986875E-01,
 4.40970828997977E-01,
 4.46464256085438E-01,
 4.51940906828194E-01,
 4.57400575435572E-01,
 4.62843056755015E-01,
 4.68268146279800E-01,
 4.73675640156717E-01,
 4.79065335193729E-01,
 4.84437028867609E-01,
 4.89790519331550E-01,
 4.95125605422749E-01,
 5.00442086669964E-01,
 5.05739763301053E-01,
 5.11018436250470E-01,
 5.16277907166757E-01,
 5.21517978419991E-01,
 5.26738453109208E-01,
 5.31939135069807E-01,
 5.37119828880918E-01,
 5.42280339872746E-01,
 5.47420474133887E-01,
 5.52540038518610E-01,
 5.57638840654122E-01,
 5.62716688947789E-01,
 5.67773392594341E-01,
 5.72808761583037E-01,
 5.77822606704811E-01,
 5.82814739559375E-01,
 5.87784972562301E-01,
 5.92733118952072E-01,
 5.97658992797097E-01,
 6.02562409002700E-01,
 6.07443183318069E-01,
 6.12301132343187E-01,
 6.17136073535721E-01,
 6.21947825217880E-01,
 6.26736206583239E-01,
 6.31501037703542E-01,
 6.36242139535452E-01,
 6.40959333927287E-01,
 6.45652443625709E-01,
 6.50321292282390E-01,
 6.54965704460630E-01,
 6.59585505641960E-01,
 6.64180522232691E-01,
 6.68750581570439E-01,
 6.73295511930615E-01,
 6.77815142532879E-01,
 6.82309303547551E-01,
 6.86777826101999E-01,
 6.91220542286982E-01,
 6.95637285162957E-01,
 7.00027888766357E-01,
 7.04392188115824E-01,
 7.08730019218407E-01,
 7.13041219075728E-01,
 7.17325625690106E-01,
 7.21583078070638E-01,
 7.25813416239259E-01,
 7.30016481236747E-01,
 7.34192115128693E-01,
 7.38340161011444E-01,
 7.42460463017993E-01,
 7.46552866323834E-01,
 7.50617217152788E-01,
 7.54653362782773E-01,
 7.58661151551545E-01,
 7.62640432862400E-01,
 7.66591057189831E-01,
 7.70512876085140E-01,
 7.74405742182032E-01,
 7.78269509202134E-01,
 7.82104031960505E-01,
 7.85909166371083E-01,
 7.89684769452107E-01,
 7.93430699331483E-01,
 7.97146815252118E-01,
 8.00832977577207E-01,
 8.04489047795484E-01,
 8.08114888526425E-01,
 8.11710363525404E-01,
 8.15275337688825E-01,
 8.18809677059187E-01,
 8.22313248830124E-01,
 8.25785921351393E-01,
 8.29227564133822E-01,
 8.32638047854212E-01,
 8.36017244360198E-01,
 8.39365026675063E-01,
 8.42681269002511E-01,
 8.45965846731391E-01,
 8.49218636440383E-01,
 8.52439515902633E-01,
 8.55628364090346E-01,
 8.58785061179337E-01,
 8.61909488553529E-01,
 8.65001528809412E-01,
 8.68061065760454E-01,
 8.71087984441470E-01,
 8.74082171112938E-01,
 8.77043513265273E-01,
 8.79971899623057E-01,
 8.82867220149221E-01,
 8.85729366049176E-01,
 8.88558229774902E-01,
 8.91353705028993E-01,
 8.94115686768646E-01,
 8.96844071209614E-01,
 8.99538755830098E-01,
 9.02199639374607E-01,
 9.04826621857758E-01,
 9.07419604568036E-01,
 9.09978490071499E-01,
 9.12503182215446E-01,
 9.14993586132023E-01,
 9.17449608241791E-01,
 9.19871156257243E-01,
 9.22258139186272E-01,
 9.24610467335586E-01,
 9.26928052314083E-01,
 9.29210807036171E-01,
 9.31458645725040E-01,
 9.33671483915885E-01,
 9.35849238459081E-01,
 9.37991827523303E-01,
 9.40099170598610E-01,
 9.42171188499459E-01,
 9.44207803367691E-01,
 9.46208938675448E-01,
 9.48174519228055E-01,
 9.50104471166842E-01,
 9.51998721971920E-01,
 9.53857200464906E-01,
 9.55679836811599E-01,
 9.57466562524602E-01,
 9.59217310465897E-01,
 9.60932014849368E-01,
 9.62610611243271E-01,
 9.64253036572656E-01,
 9.65859229121741E-01,
 9.67429128536224E-01,
 9.68962675825557E-01,
 9.70459813365159E-01,
 9.71920484898584E-01,
 9.73344635539633E-01,
 9.74732211774417E-01,
 9.76083161463370E-01,
 9.77397433843206E-01,
 9.78674979528826E-01,
 9.79915750515178E-01,
 9.81119700179057E-01,
 9.82286783280860E-01,
 9.83416955966284E-01,
 9.84510175767979E-01,
 9.85566401607138E-01,
 9.86585593795049E-01,
 9.87567714034583E-01,
 9.88512725421635E-01,
 9.89420592446516E-01,
 9.90291280995287E-01,
 9.91124758351048E-01,
 9.91920993195172E-01,
 9.92679955608487E-01,
 9.93401617072415E-01,
 9.94085950470056E-01,
 9.94732930087228E-01,
 9.95342531613466E-01,
 9.95914732142977E-01,
 9.96449510175577E-01,
 9.96946845617604E-01,
 9.97406719782850E-01,
 9.97829115393563E-01,
 9.98214016581613E-01,
 9.98561408890040E-01,
 9.98871279275449E-01,
 9.99143616112379E-01,
 9.99378409202599E-01,
 9.99575649798311E-01,
 9.99735330671043E-01,
 9.99857446369980E-01,
 9.99941994606846E-01,
 9.99988990984382E-01,
};

double w512[512] = {
 2.82526373734174E-05,
 6.57657316590003E-05,
 1.03331903496442E-04,
 1.40899017387098E-04,
 1.78461805546577E-04,
 2.16018177977171E-04,
 2.53566543571287E-04,
 2.91105430250793E-04,
 3.28633402852835E-04,
 3.66149040036701E-04,
 4.03650926532635E-04,
 4.41137650179774E-04,
 4.78607800667187E-04,
 5.16059969001371E-04,
 5.53492747240934E-04,
 5.90904728402644E-04,
 6.28294506425755E-04,
 6.65660676159613E-04,
 7.03001833408127E-04,
 7.40316574947600E-04,
 7.77603498568550E-04,
 8.14861203130551E-04,
 8.52088288601614E-04,
 8.89283356104404E-04,
 9.26445007978797E-04,
 9.63571847821072E-04,
 1.00066248053899E-03,
 1.03771551240431E-03,
 1.07472955110387E-03,
 1.11170320579106E-03,
 1.14863508713865E-03,
 1.18552380738908E-03,
 1.22236798040754E-03,
 1.25916622173308E-03,
 1.29591714863539E-03,
 1.33261938015609E-03,
 1.36927153717083E-03,
 1.40587224243849E-03,
 1.44242012064487E-03,
 1.47891379847010E-03,
 1.51535190462433E-03,
 1.55173306990888E-03,
 1.58805592726193E-03,
 1.62431911181917E-03,
 1.66052126095043E-03,
 1.69666101432396E-03,
 1.73273701395370E-03,
 1.76874790424308E-03,
 1.80469233205080E-03,
 1.84056894672576E-03,
 1.87637640016955E-03,
 1.91211334687663E-03,
 1.94777844400242E-03,
 1.98337035138799E-03,
 2.01888773163316E-03,
 2.05432925013927E-03,
 2.08969357515068E-03,
 2.12497937782193E-03,
 2.16018533224929E-03,
 2.19531011553572E-03,
 2.23035240783227E-03,
 2.26531089238631E-03,
 2.30018425560071E-03,
 2.33497118707340E-03,
 2.36967037964875E-03,
 2.40428052946991E-03,
 2.43880033602739E-03,
 2.47322850219994E-03,
 2.50756373432072E-03,
 2.54180474220461E-03,
 2.57595023921286E-03,
 2.60999894229306E-03,
 2.64394957202804E-03,
 2.67780085269580E-03,
 2.71155151229363E-03,
 2.74520028261035E-03,
 2.77874589925810E-03,
 2.81218710172397E-03,
 2.84552263342656E-03,
 2.87875124174526E-03,
 2.91187167808301E-03,
 2.94488269790650E-03,
 2.97778306079114E-03,
 3.01057153047574E-03,
 3.04324687489786E-03,
 3.07580786625036E-03,
 3.10825328101988E-03,
 3.14058190003875E-03,
 3.17279250852306E-03,
 3.20488389613121E-03,
 3.23685485699315E-03,
 3.26870418977122E-03,
 3.30043069769125E-03,
 3.33203318860095E-03,
 3.36351047500199E-03,
 3.39486137410529E-03,
 3.42608470786702E-03,
 3.45717930304244E-03,
 3.48814399121863E-03,
 3.51897760886556E-03,
 3.54967899738085E-03,
 3.58024700312775E-03,
 3.61068047748129E-03,
 3.64097827687527E-03,
 3.67113926283796E-03,
 3.70116230204216E-03,
 3.73104626633879E-03,
 3.76079003280856E-03,
 3.79039248380284E-03,
 3.81985250697232E-03,
 3.84916899533448E-03,
 3.87834084728879E-03,
 3.90736696667405E-03,
 3.93624626280427E-03,
 3.96497765051322E-03,
 3.99356005018630E-03,
 4.02199238781305E-03,
 4.05027359502038E-03,
 4.07840260911222E-03,
 4.10637837311182E-03,
 4.13419983580340E-03,
 4.16186595176693E-03,
 4.18937568141887E-03,
 4.21672799105489E-03,
 4.24392185288577E-03,
 4.27095624506916E-03,
 4.29783015176592E-03,
 4.32454256316087E-03,
 4.35109247550772E-03,
 4.37747889116395E-03,
 4.40370081863885E-03,
 4.42975727261345E-03,
 4.45564727399013E-03,
 4.48136984992693E-03,
 4.50692403387306E-03,
 4.53230886560182E-03,
 4.55752339125469E-03,
 4.58256666336895E-03,
 4.60743774091962E-03,
 4.63213568934945E-03,
 4.65665958061105E-03,
 4.68100849319006E-03,
 4.70518151215537E-03,
 4.72917772918011E-03,
 4.75299624258127E-03,
 4.77663615735489E-03,
 4.80009658520877E-03,
 4.82337664459156E-03,
 4.84647546073234E-03,
 4.86939216566787E-03,
 4.89212589828463E-03,
 4.91467580433632E-03,
 4.93704103648691E-03,
 4.95922075434094E-03,
 4.98121412447524E-03,
 5.00302032046316E-03,
 5.02463852291802E-03,
 5.04606791951256E-03,
 5.06730770501589E-03,
 5.08835708131959E-03,
 5.10921525747696E-03,
 5.12988144971630E-03,
 5.15035488148857E-03,
 5.17063478348029E-03,
 5.19072039365507E-03,
 5.21061095727591E-03,
 5.23030572693463E-03,
 5.24980396258104E-03,
 5.26910493154998E-03,
 5.28820790858480E-03,
 5.30711217587565E-03,
 5.32581702307348E-03,
 5.34432174732426E-03,
 5.36262565329804E-03,
 5.38072805320227E-03,
 5.39862826682374E-03,
 5.41632562154191E-03,
 5.43381945236515E-03,
 5.45110910194085E-03,
 5.46819392059233E-03,
 5.48507326634617E-03,
 5.50174650493558E-03,
 5.51821300985573E-03,
 5.53447216235301E-03,
 5.55052335147918E-03,
 5.56636597409116E-03,
 5.58199943488865E-03,
 5.59742314642744E-03,
 5.61263652914619E-03,
 5.62763901138675E-03,
 5.64243002941602E-03,
 5.65700902744552E-03,
 5.67137545765547E-03,
 5.68552878021385E-03,
 5.69946846329199E-03,
 5.71319398309568E-03,
 5.72670482387394E-03,
 5.74000047794304E-03,
 5.75308044570338E-03,
 5.76594423566446E-03,
 5.77859136445651E-03,
 5.79102135684909E-03,
 5.80323374577398E-03,
 5.81522807233804E-03,
 5.82700388584218E-03,
 5.83856074379824E-03,
 5.84989821194691E-03,
 5.86101586426940E-03,
 5.87191328301013E-03,
 5.88259005868771E-03,
 5.89304579010871E-03,
 5.90328008439254E-03,
 5.91329255697359E-03,
 5.92308283162172E-03,
 5.93265054045990E-03,
 5.94199532396893E-03,
 5.95111683101229E-03,
 5.96001471883864E-03,
 5.96868865310263E-03,
 5.97713830786778E-03,
 5.98536336563276E-03,
 5.99336351733566E-03,
 6.00113846235722E-03,
 6.00868790854907E-03,
 6.01601157223390E-03,
 6.02310917821536E-03,
 6.02998045979486E-03,
 6.03662515877666E-03,
 6.04304302548095E-03,
 6.04923381874757E-03,
 6.05519730595457E-03,
 6.06093326301325E-03,
 6.06644147439363E-03,
 6.07172173311691E-03,
 6.07677384077343E-03,
 6.08159760752141E-03,
 6.08619285210737E-03,
 6.09055940185749E-03,
 6.09469709269796E-03,
 6.09860576914772E-03,
 6.10228528433264E-03,
 6.10573549999407E-03,
 6.10895628648834E-03,
 6.11194752278775E-03,
 6.11470909649607E-03,
 6.11724090383972E-03,
 6.11954284969009E-03,
 6.12161484754534E-03,
 6.12345681954725E-03,
 6.12506869648428E-03,
 6.12645041778843E-03,
 6.12760193153789E-03,
 6.12852319446565E-03,
 6.12921417195356E-03,
 6.12967483803742E-03,
 6.12990517540568E-03,
 6.12990517540635E-03,
 6.12967483803714E-03,
 6.12921417195200E-03,
 6.12852319446469E-03,
 6.12760193153760E-03,
 6.12645041778817E-03,
 6.12506869648377E-03,
 6.12345681954734E-03,
 6.12161484754491E-03,
 6.11954284968950E-03,
 6.11724090384094E-03,
 6.11470909649437E-03,
 6.11194752278841E-03,
 6.10895628648809E-03,
 6.10573549999519E-03,
 6.10228528433362E-03,
 6.09860576914693E-03,
 6.09469709269809E-03,
 6.09055940185792E-03,
 6.08619285210738E-03,
 6.08159760752172E-03,
 6.07677384077210E-03,
 6.07172173311667E-03,
 6.06644147439306E-03,
 6.06093326301403E-03,
 6.05519730595464E-03,
 6.04923381874878E-03,
 6.04304302547993E-03,
 6.03662515877732E-03,
 6.02998045979475E-03,
 6.02310917821474E-03,
 6.01601157223241E-03,
 6.00868790854989E-03,
 6.00113846235731E-03,
 5.99336351733467E-03,
 5.98536336563358E-03,
 5.97713830786642E-03,
 5.96868865310040E-03,
 5.96001471883957E-03,
 5.95111683101307E-03,
 5.94199532396985E-03,
 5.93265054045984E-03,
 5.92308283162189E-03,
 5.91329255697301E-03,
 5.90328008439183E-03,
 5.89304579010878E-03,
 5.88259005868630E-03,
 5.87191328301087E-03,
 5.86101586427010E-03,
 5.84989821194646E-03,
 5.83856074379881E-03,
 5.82700388584233E-03,
 5.81522807233832E-03,
 5.80323374577347E-03,
 5.79102135684942E-03,
 5.77859136445558E-03,
 5.76594423566523E-03,
 5.75308044570339E-03,
 5.74000047794297E-03,
 5.72670482387545E-03,
 5.71319398309668E-03,
 5.69946846329268E-03,
 5.68552878021286E-03,
 5.67137545765599E-03,
 5.65700902744580E-03,
 5.64243002941545E-03,
 5.62763901138616E-03,
 5.61263652914717E-03,
 5.59742314642847E-03,
 5.58199943488856E-03,
 5.56636597409153E-03,
 5.55052335147974E-03,
 5.53447216235461E-03,
 5.51821300985436E-03,
 5.50174650493711E-03,
 5.48507326634488E-03,
 5.46819392059538E-03,
 5.45110910194057E-03,
 5.43381945236481E-03,
 5.41632562154249E-03,
 5.39862826682414E-03,
 5.38072805320251E-03,
 5.36262565329740E-03,
 5.34432174732495E-03,
 5.32581702307281E-03,
 5.30711217587418E-03,
 5.28820790858262E-03,
 5.26910493154995E-03,
 5.24980396258122E-03,
 5.23030572693521E-03,
 5.21061095727535E-03,
 5.19072039365419E-03,
 5.17063478348027E-03,
 5.15035488148798E-03,
 5.12988144971744E-03,
 5.10921525747642E-03,
 5.08835708132103E-03,
 5.06730770501471E-03,
 5.04606791951317E-03,
 5.02463852291669E-03,
 5.00302032046254E-03,
 4.98121412447392E-03,
 4.95922075434183E-03,
 4.93704103648607E-03,
 4.91467580433559E-03,
 4.89212589828274E-03,
 4.86939216566867E-03,
 4.84647546073158E-03,
 4.82337664459149E-03,
 4.80009658520780E-03,
 4.77663615735560E-03,
 4.75299624258127E-03,
 4.72917772918000E-03,
 4.70518151215551E-03,
 4.68100849319286E-03,
 4.65665958061017E-03,
 4.63213568935141E-03,
 4.60743774091950E-03,
 4.58256666336867E-03,
 4.55752339125498E-03,
 4.53230886560265E-03,
 4.50692403387254E-03,
 4.48136984992716E-03,
 4.45564727399090E-03,
 4.42975727261312E-03,
 4.40370081863970E-03,
 4.37747889116571E-03,
 4.35109247550751E-03,
 4.32454256316033E-03,
 4.29783015176697E-03,
 4.27095624506937E-03,
 4.24392185288396E-03,
 4.21672799105478E-03,
 4.18937568141940E-03,
 4.16186595176796E-03,
 4.13419983580295E-03,
 4.10637837311225E-03,
 4.07840260911163E-03,
 4.05027359501962E-03,
 4.02199238781315E-03,
 3.99356005018565E-03,
 3.96497765051195E-03,
 3.93624626280367E-03,
 3.90736696667433E-03,
 3.87834084728724E-03,
 3.84916899533444E-03,
 3.81985250697284E-03,
 3.79039248380213E-03,
 3.76079003280837E-03,
 3.73104626633911E-03,
 3.70116230204201E-03,
 3.67113926283871E-03,
 3.64097827687581E-03,
 3.61068047748128E-03,
 3.58024700312724E-03,
 3.54967899738075E-03,
 3.51897760886487E-03,
 3.48814399121924E-03,
 3.45717930304152E-03,
 3.42608470786697E-03,
 3.39486137410482E-03,
 3.36351047500136E-03,
 3.33203318860139E-03,
 3.30043069769233E-03,
 3.26870418977258E-03,
 3.23685485699358E-03,
 3.20488389613167E-03,
 3.17279250852452E-03,
 3.14058190003676E-03,
 3.10825328102079E-03,
 3.07580786625048E-03,
 3.04324687489750E-03,
 3.01057153047594E-03,
 2.97778306079165E-03,
 2.94488269790533E-03,
 2.91187167808366E-03,
 2.87875124174526E-03,
 2.84552263342726E-03,
 2.81218710172576E-03,
 2.77874589925721E-03,
 2.74520028261124E-03,
 2.71155151229365E-03,
 2.67780085269579E-03,
 2.64394957203032E-03,
 2.60999894229178E-03,
 2.57595023921254E-03,
 2.54180474220342E-03,
 2.50756373432014E-03,
 2.47322850219983E-03,
 2.43880033602657E-03,
 2.40428052946915E-03,
 2.36967037964757E-03,
 2.33497118707349E-03,
 2.30018425560202E-03,
 2.26531089238649E-03,
 2.23035240783111E-03,
 2.19531011553672E-03,
 2.16018533224802E-03,
 2.12497937782229E-03,
 2.08969357515040E-03,
 2.05432925013901E-03,
 2.01888773163372E-03,
 1.98337035138909E-03,
 1.94777844400241E-03,
 1.91211334687827E-03,
 1.87637640016805E-03,
 1.84056894672671E-03,
 1.80469233205046E-03,
 1.76874790424431E-03,
 1.73273701395192E-03,
 1.69666101432280E-03,
 1.66052126094984E-03,
 1.62431911181895E-03,
 1.58805592726288E-03,
 1.55173306990936E-03,
 1.51535190462443E-03,
 1.47891379846973E-03,
 1.44242012064514E-03,
 1.40587224243861E-03,
 1.36927153717077E-03,
 1.33261938015701E-03,
 1.29591714863496E-03,
 1.25916622173449E-03,
 1.22236798040610E-03,
 1.18552380738912E-03,
 1.14863508713852E-03,
 1.11170320579023E-03,
 1.07472955110498E-03,
 1.03771551240454E-03,
 1.00066248053840E-03,
 9.63571847820721E-04,
 9.26445007977724E-04,
 8.89283356104318E-04,
 8.52088288600424E-04,
 8.14861203131111E-04,
 7.77603498568162E-04,
 7.40316574948300E-04,
 7.03001833408488E-04,
 6.65660676159305E-04,
 6.28294506424411E-04,
 5.90904728404027E-04,
 5.53492747240789E-04,
 5.16059969000280E-04,
 4.78607800668177E-04,
 4.41137650179803E-04,
 4.03650926533204E-04,
 3.66149040035532E-04,
 3.28633402851710E-04,
 2.91105430251507E-04,
 2.53566543570627E-04,
 2.16018177977107E-04,
 1.78461805544836E-04,
 1.40899017388290E-04,
 1.03331903497129E-04,
 6.57657316602762E-05,
 2.82526373741381E-05,
};

double x1024[1024] = {
-9.99997245054559E-01,
-9.99985484385029E-01,
-9.99964326153890E-01,
-9.99933765860618E-01,
-9.99893803216943E-01,
-9.99844438461171E-01,
-9.99785672011690E-01,
-9.99717504402375E-01,
-9.99639936265439E-01,
-9.99552968325708E-01,
-9.99456601398401E-01,
-9.99350836388152E-01,
-9.99235674288535E-01,
-9.99111116181823E-01,
-9.98977163238841E-01,
-9.98833816718883E-01,
-9.98681077969659E-01,
-9.98518948427250E-01,
-9.98347429616081E-01,
-9.98166523148892E-01,
-9.97976230726719E-01,
-9.97776554138868E-01,
-9.97567495262900E-01,
-9.97349056064602E-01,
-9.97121238597977E-01,
-9.96884045005218E-01,
-9.96637477516687E-01,
-9.96381538450890E-01,
-9.96116230214463E-01,
-9.95841555302141E-01,
-9.95557516296738E-01,
-9.95264115869121E-01,
-9.94961356778187E-01,
-9.94649241870835E-01,
-9.94327774081937E-01,
-9.93996956434314E-01,
-9.93656792038707E-01,
-9.93307284093745E-01,
-9.92948435885918E-01,
-9.92580250789543E-01,
-9.92202732266734E-01,
-9.91815883867372E-01,
-9.91419709229066E-01,
-9.91014212077121E-01,
-9.90599396224508E-01,
-9.90175265571818E-01,
-9.89741824107235E-01,
-9.89299075906493E-01,
-9.88847025132840E-01,
-9.88385676036995E-01,
-9.87915032957115E-01,
-9.87435100318747E-01,
-9.86945882634794E-01,
-9.86447384505464E-01,
-9.85939610618230E-01,
-9.85422565747792E-01,
-9.84896254756022E-01,
-9.84360682591925E-01,
-9.83815854291592E-01,
-9.83261774978148E-01,
-9.82698449861710E-01,
-9.82125884239335E-01,
-9.81544083494968E-01,
-9.80953053099397E-01,
-9.80352798610194E-01,
-9.79743325671671E-01,
-9.79124640014822E-01,
-9.78496747457267E-01,
-9.77859653903203E-01,
-9.77213365343346E-01,
-9.76557887854874E-01,
-9.75893227601369E-01,
-9.75219390832763E-01,
-9.74536383885274E-01,
-9.73844213181350E-01,
-9.73142885229607E-01,
-9.72432406624770E-01,
-9.71712784047609E-01,
-9.70984024264874E-01,
-9.70246134129237E-01,
-9.69499120579224E-01,
-9.68742990639148E-01,
-9.67977751419048E-01,
-9.67203410114618E-01,
-9.66419974007140E-01,
-9.65627450463418E-01,
-9.64825846935706E-01,
-9.64015170961638E-01,
-9.63195430164160E-01,
-9.62366632251456E-01,
-9.61528785016873E-01,
-9.60681896338854E-01,
-9.59825974180857E-01,
-9.58961026591288E-01,
-9.58087061703418E-01,
-9.57204087735309E-01,
-9.56312112989739E-01,
-9.55411145854120E-01,
-9.54501194800424E-01,
-9.53582268385097E-01,
-9.52654375248986E-01,
-9.51717524117251E-01,
-9.50771723799286E-01,
-9.49816983188636E-01,
-9.48853311262917E-01,
-9.47880717083722E-01,
-9.46899209796544E-01,
-9.45908798630691E-01,
-9.44909492899190E-01,
-9.43901301998711E-01,
-9.42884235409470E-01,
-9.41858302695141E-01,
-9.40823513502773E-01,
-9.39779877562690E-01,
-9.38727404688405E-01,
-9.37666104776528E-01,
-9.36595987806668E-01,
-9.35517063841345E-01,
-9.34429343025893E-01,
-9.33332835588363E-01,
-9.32227551839429E-01,
-9.31113502172291E-01,
-9.29990697062576E-01,
-9.28859147068241E-01,
-9.27718862829470E-01,
-9.26569855068582E-01,
-9.25412134589920E-01,
-9.24245712279756E-01,
-9.23070599106187E-01,
-9.21886806119036E-01,
-9.20694344449736E-01,
-9.19493225311239E-01,
-9.18283459997904E-01,
-9.17065059885390E-01,
-9.15838036430554E-01,
-9.14602401171335E-01,
-9.13358165726655E-01,
-9.12105341796303E-01,
-9.10843941160828E-01,
-9.09573975681427E-01,
-9.08295457299834E-01,
-9.07008398038208E-01,
-9.05712809999018E-01,
-9.04408705364933E-01,
-9.03096096398705E-01,
-9.01774995443053E-01,
-9.00445414920546E-01,
-8.99107367333492E-01,
-8.97760865263814E-01,
-8.96405921372933E-01,
-8.95042548401654E-01,
-8.93670759170039E-01,
-8.92290566577291E-01,
-8.90901983601631E-01,
-8.89505023300175E-01,
-8.88099698808817E-01,
-8.86686023342097E-01,
-8.85264010193083E-01,
-8.83833672733242E-01,
-8.82395024412319E-01,
-8.80948078758204E-01,
-8.79492849376810E-01,
-8.78029349951945E-01,
-8.76557594245180E-01,
-8.75077596095723E-01,
-8.73589369420285E-01,
-8.72092928212954E-01,
-8.70588286545060E-01,
-8.69075458565042E-01,
-8.67554458498318E-01,
-8.66025300647150E-01,
-8.64487999390508E-01,
-8.62942569183937E-01,
-8.61389024559420E-01,
-8.59827380125241E-01,
-8.58257650565849E-01,
-8.56679850641718E-01,
-8.55093995189210E-01,
-8.53500099120434E-01,
-8.51898177423106E-01,
-8.50288245160411E-01,
-8.48670317470856E-01,
-8.47044409568133E-01,
-8.45410536740971E-01,
-8.43768714352997E-01,
-8.42118957842588E-01,
-8.40461282722728E-01,
-8.38795704580860E-01,
-8.37122239078742E-01,
-8.35440901952297E-01,
-8.33751709011469E-01,
-8.32054676140069E-01,
-8.30349819295629E-01,
-8.28637154509251E-01,
-8.26916697885459E-01,
-8.25188465602044E-01,
-8.23452473909909E-01,
-8.21708739132927E-01,
-8.19957277667776E-01,
-8.18198105983793E-01,
-8.16431240622811E-01,
-8.14656698199014E-01,
-8.12874495398770E-01,
-8.11084648980480E-01,
-8.09287175774423E-01,
-8.07482092682590E-01,
-8.05669416678530E-01,
-8.03849164807193E-01,
-8.02021354184760E-01,
-8.00186001998495E-01,
-7.98343125506573E-01,
-7.96492742037923E-01,
-7.94634868992063E-01,
-7.92769523838936E-01,
-7.90896724118749E-01,
-7.89016487441803E-01,
-7.87128831488334E-01,
-7.85233774008338E-01,
-7.83331332821413E-01,
-7.81421525816586E-01,
-7.79504370952147E-01,
-7.77579886255476E-01,
-7.75648089822880E-01,
-7.73708999819421E-01,
-7.71762634478741E-01,
-7.69809012102894E-01,
-7.67848151062175E-01,
-7.65880069794943E-01,
-7.63904786807451E-01,
-7.61922320673673E-01,
-7.59932690035127E-01,
-7.57935913600697E-01,
-7.55932010146464E-01,
-7.53920998515525E-01,
-7.51902897617817E-01,
-7.49877726429935E-01,
-7.47845503994963E-01,
-7.45806249422285E-01,
-7.43759981887411E-01,
-7.41706720631796E-01,
-7.39646484962658E-01,
-7.37579294252795E-01,
-7.35505167940407E-01,
-7.33424125528910E-01,
-7.31336186586752E-01,
-7.29241370747234E-01,
-7.27139697708317E-01,
-7.25031187232446E-01,
-7.22915859146356E-01,
-7.20793733340893E-01,
-7.18664829770820E-01,
-7.16529168454636E-01,
-7.14386769474380E-01,
-7.12237652975450E-01,
-7.10081839166412E-01,
-7.07919348318802E-01,
-7.05750200766946E-01,
-7.03574416907762E-01,
-7.01392017200574E-01,
-6.99203022166912E-01,
-6.97007452390324E-01,
-6.94805328516186E-01,
-6.92596671251497E-01,
-6.90381501364695E-01,
-6.88159839685457E-01,
-6.85931707104500E-01,
-6.83697124573393E-01,
-6.81456113104354E-01,
-6.79208693770049E-01,
-6.76954887703406E-01,
-6.74694716097402E-01,
-6.72428200204874E-01,
-6.70155361338316E-01,
-6.67876220869675E-01,
-6.65590800230157E-01,
-6.63299120910018E-01,
-6.61001204458368E-01,
-6.58697072482965E-01,
-6.56386746650015E-01,
-6.54070248683961E-01,
-6.51747600367290E-01,
-6.49418823540318E-01,
-6.47083940100988E-01,
-6.44742972004667E-01,
-6.42395941263937E-01,
-6.40042869948388E-01,
-6.37683780184409E-01,
-6.35318694154983E-01,
-6.32947634099479E-01,
-6.30570622313436E-01,
-6.28187681148364E-01,
-6.25798833011523E-01,
-6.23404100365722E-01,
-6.21003505729099E-01,
-6.18597071674916E-01,
-6.16184820831345E-01,
-6.13766775881252E-01,
-6.11342959561986E-01,
-6.08913394665169E-01,
-6.06478104036473E-01,
-6.04037110575414E-01,
-6.01590437235131E-01,
-5.99138107022171E-01,
-5.96680142996278E-01,
-5.94216568270168E-01,
-5.91747406009315E-01,
-5.89272679431738E-01,
-5.86792411807774E-01,
-5.84306626459864E-01,
-5.81815346762335E-01,
-5.79318596141184E-01,
-5.76816398073835E-01,
-5.74308776088951E-01,
-5.71795753766192E-01,
-5.69277354736003E-01,
-5.66753602679380E-01,
-5.64224521327657E-01,
-5.61690134462284E-01,
-5.59150465914595E-01,
-5.56605539565590E-01,
-5.54055379345710E-01,
-5.51500009234613E-01,
-5.48939453260941E-01,
-5.46373735502107E-01,
-5.43802880084054E-01,
-5.41226911181042E-01,
-5.38645853015408E-01,
-5.36059729857350E-01,
-5.33468566024689E-01,
-5.30872385882646E-01,
-5.28271213843612E-01,
-5.25665074366914E-01,
-5.23053991958597E-01,
-5.20437991171175E-01,
-5.17817096603420E-01,
-5.15191332900113E-01,
-5.12560724751827E-01,
-5.09925296894681E-01,
-5.07285074110129E-01,
-5.04640081224690E-01,
-5.01990343109758E-01,
-4.99335884681340E-01,
-4.96676730899827E-01,
-4.94012906769759E-01,
-4.91344437339601E-01,
-4.88671347701490E-01,
-4.85993662991012E-01,
-4.83311408386961E-01,
-4.80624609111102E-01,
-4.77933290427936E-01,
-4.75237477644458E-01,
-4.72537196109924E-01,
-4.69832471215611E-01,
-4.67123328394575E-01,
-4.64409793121418E-01,
-4.61691890912042E-01,
-4.58969647323414E-01,
-4.56243087953325E-01,
-4.53512238440145E-01,
-4.50777124462587E-01,
-4.48037771739463E-01,
-4.45294206029444E-01,
-4.42546453130816E-01,
-4.39794538881235E-01,
-4.37038489157492E-01,
-4.34278329875262E-01,
-4.31514086988862E-01,
-4.28745786491009E-01,
-4.25973454412576E-01,
-4.23197116822343E-01,
-4.20416799826757E-01,
-4.17632529569682E-01,
-4.14844332232158E-01,
-4.12052234032149E-01,
-4.09256261224302E-01,
-4.06456440099697E-01,
-4.03652796985598E-01,
-4.00845358245213E-01,
-3.98034150277437E-01,
-3.95219199516610E-01,
-3.92400532432263E-01,
-3.89578175528876E-01,
-3.86752155345623E-01,
-3.83922498456126E-01,
-3.81089231468203E-01,
-3.78252381023616E-01,
-3.75411973797827E-01,
-3.72568036499742E-01,
-3.69720595871458E-01,
-3.66869678688019E-01,
-3.64015311757157E-01,
-3.61157521919041E-01,
-3.58296336046031E-01,
-3.55431781042417E-01,
-3.52563883844171E-01,
-3.49692671418691E-01,
-3.46818170764551E-01,
-3.43940408911242E-01,
-3.41059412918923E-01,
-3.38175209878164E-01,
-3.35287826909690E-01,
-3.32397291164128E-01,
-3.29503629821753E-01,
-3.26606870092228E-01,
-3.23707039214353E-01,
-3.20804164455805E-01,
-3.17898273112883E-01,
-3.14989392510253E-01,
-3.12077550000689E-01,
-3.09162772964816E-01,
-3.06245088810854E-01,
-3.03324524974357E-01,
-3.00401108917960E-01,
-2.97474868131115E-01,
-2.94545830129839E-01,
-2.91614022456449E-01,
-2.88679472679306E-01,
-2.85742208392557E-01,
-2.82802257215872E-01,
-2.79859646794189E-01,
-2.76914404797450E-01,
-2.73966558920341E-01,
-2.71016136882035E-01,
-2.68063166425926E-01,
-2.65107675319377E-01,
-2.62149691353447E-01,
-2.59189242342639E-01,
-2.56226356124635E-01,
-2.53261060560034E-01,
-2.50293383532091E-01,
-2.47323352946454E-01,
-2.44350996730902E-01,
-2.41376342835083E-01,
-2.38399419230249E-01,
-2.35420253908997E-01,
-2.32438874885001E-01,
-2.29455310192752E-01,
-2.26469587887293E-01,
-2.23481736043955E-01,
-2.20491782758095E-01,
-2.17499756144827E-01,
-2.14505684338765E-01,
-2.11509595493753E-01,
-2.08511517782599E-01,
-2.05511479396816E-01,
-2.02509508546352E-01,
-1.99505633459327E-01,
-1.96499882381766E-01,
-1.93492283577336E-01,
-1.90482865327077E-01,
-1.87471655929137E-01,
-1.84458683698509E-01,
-1.81443976966761E-01,
-1.78427564081769E-01,
-1.75409473407456E-01,
-1.72389733323517E-01,
-1.69368372225163E-01,
-1.66345418522841E-01,
-1.63320900641977E-01,
-1.60294847022706E-01,
-1.57267286119601E-01,
-1.54238246401412E-01,
-1.51207756350791E-01,
-1.48175844464030E-01,
-1.45142539250790E-01,
-1.42107869233834E-01,
-1.39071862948758E-01,
-1.36034548943723E-01,
-1.32995955779189E-01,
-1.29956112027641E-01,
-1.26915046273326E-01,
-1.23872787111980E-01,
-1.20829363150564E-01,
-1.17784803006985E-01,
-1.14739135309841E-01,
-1.11692388698142E-01,
-1.08644591821041E-01,
-1.05595773337572E-01,
-1.02545961916368E-01,
-9.94951862354056E-02,
-9.64434749817259E-02,
-9.33908568511673E-02,
-9.03373605480942E-02,
-8.72830147851323E-02,
-8.42278482828914E-02,
-8.11718897697016E-02,
-7.81151679813376E-02,
-7.50577116607545E-02,
-7.19995495578116E-02,
-6.89407104290068E-02,
-6.58812230372022E-02,
-6.28211161513581E-02,
-5.97604185462583E-02,
-5.66991590022407E-02,
-5.36373663049299E-02,
-5.05750692449604E-02,
-4.75122966177130E-02,
-4.44490772230372E-02,
-4.13854398649845E-02,
-3.83214133515376E-02,
-3.52570264943372E-02,
-3.21923081084134E-02,
-2.91272870119132E-02,
-2.60619920258295E-02,
-2.29964519737326E-02,
-1.99306956814944E-02,
-1.68647519770213E-02,
-1.37986496899844E-02,
-1.07324176515421E-02,
-7.66608469407516E-03,
-4.59967965091332E-03,
-1.53323135606231E-03,
 1.53323135606256E-03,
 4.59967965091321E-03,
 7.66608469407517E-03,
 1.07324176515426E-02,
 1.37986496899850E-02,
 1.68647519770214E-02,
 1.99306956814944E-02,
 2.29964519737318E-02,
 2.60619920258300E-02,
 2.91272870119132E-02,
 3.21923081084138E-02,
 3.52570264943378E-02,
 3.83214133515377E-02,
 4.13854398649845E-02,
 4.44490772230372E-02,
 4.75122966177134E-02,
 5.05750692449612E-02,
 5.36373663049302E-02,
 5.66991590022414E-02,
 5.97604185462581E-02,
 6.28211161513583E-02,
 6.58812230372027E-02,
 6.89407104290067E-02,
 7.19995495578111E-02,
 7.50577116607543E-02,
 7.81151679813380E-02,
 8.11718897697014E-02,
 8.42278482828915E-02,
 8.72830147851324E-02,
 9.03373605480945E-02,
 9.33908568511669E-02,
 9.64434749817257E-02,
 9.94951862354055E-02,
 1.02545961916368E-01,
 1.05595773337571E-01,
 1.08644591821041E-01,
 1.11692388698141E-01,
 1.14739135309841E-01,
 1.17784803006985E-01,
 1.20829363150563E-01,
 1.23872787111981E-01,
 1.26915046273327E-01,
 1.29956112027642E-01,
 1.32995955779190E-01,
 1.36034548943723E-01,
 1.39071862948757E-01,
 1.42107869233833E-01,
 1.45142539250790E-01,
 1.48175844464030E-01,
 1.51207756350791E-01,
 1.54238246401412E-01,
 1.57267286119602E-01,
 1.60294847022706E-01,
 1.63320900641978E-01,
 1.66345418522841E-01,
 1.69368372225163E-01,
 1.72389733323518E-01,
 1.75409473407456E-01,
 1.78427564081770E-01,
 1.81443976966761E-01,
 1.84458683698510E-01,
 1.87471655929138E-01,
 1.90482865327077E-01,
 1.93492283577336E-01,
 1.96499882381766E-01,
 1.99505633459327E-01,
 2.02509508546352E-01,
 2.05511479396816E-01,
 2.08511517782599E-01,
 2.11509595493753E-01,
 2.14505684338765E-01,
 2.17499756144827E-01,
 2.20491782758094E-01,
 2.23481736043955E-01,
 2.26469587887293E-01,
 2.29455310192752E-01,
 2.32438874885001E-01,
 2.35420253908997E-01,
 2.38399419230249E-01,
 2.41376342835082E-01,
 2.44350996730902E-01,
 2.47323352946454E-01,
 2.50293383532091E-01,
 2.53261060560034E-01,
 2.56226356124635E-01,
 2.59189242342640E-01,
 2.62149691353447E-01,
 2.65107675319378E-01,
 2.68063166425927E-01,
 2.71016136882034E-01,
 2.73966558920341E-01,
 2.76914404797450E-01,
 2.79859646794189E-01,
 2.82802257215873E-01,
 2.85742208392557E-01,
 2.88679472679306E-01,
 2.91614022456450E-01,
 2.94545830129840E-01,
 2.97474868131116E-01,
 3.00401108917960E-01,
 3.03324524974358E-01,
 3.06245088810854E-01,
 3.09162772964817E-01,
 3.12077550000689E-01,
 3.14989392510253E-01,
 3.17898273112882E-01,
 3.20804164455805E-01,
 3.23707039214353E-01,
 3.26606870092228E-01,
 3.29503629821753E-01,
 3.32397291164129E-01,
 3.35287826909690E-01,
 3.38175209878164E-01,
 3.41059412918923E-01,
 3.43940408911242E-01,
 3.46818170764551E-01,
 3.49692671418691E-01,
 3.52563883844171E-01,
 3.55431781042417E-01,
 3.58296336046031E-01,
 3.61157521919041E-01,
 3.64015311757156E-01,
 3.66869678688019E-01,
 3.69720595871459E-01,
 3.72568036499742E-01,
 3.75411973797827E-01,
 3.78252381023616E-01,
 3.81089231468203E-01,
 3.83922498456127E-01,
 3.86752155345624E-01,
 3.89578175528876E-01,
 3.92400532432263E-01,
 3.95219199516610E-01,
 3.98034150277438E-01,
 4.00845358245214E-01,
 4.03652796985598E-01,
 4.06456440099696E-01,
 4.09256261224302E-01,
 4.12052234032149E-01,
 4.14844332232158E-01,
 4.17632529569682E-01,
 4.20416799826757E-01,
 4.23197116822343E-01,
 4.25973454412575E-01,
 4.28745786491009E-01,
 4.31514086988862E-01,
 4.34278329875262E-01,
 4.37038489157493E-01,
 4.39794538881236E-01,
 4.42546453130816E-01,
 4.45294206029445E-01,
 4.48037771739464E-01,
 4.50777124462587E-01,
 4.53512238440145E-01,
 4.56243087953325E-01,
 4.58969647323414E-01,
 4.61691890912042E-01,
 4.64409793121418E-01,
 4.67123328394575E-01,
 4.69832471215611E-01,
 4.72537196109924E-01,
 4.75237477644458E-01,
 4.77933290427936E-01,
 4.80624609111102E-01,
 4.83311408386960E-01,
 4.85993662991011E-01,
 4.88671347701488E-01,
 4.91344437339600E-01,
 4.94012906769759E-01,
 4.96676730899826E-01,
 4.99335884681341E-01,
 5.01990343109760E-01,
 5.04640081224691E-01,
 5.07285074110127E-01,
 5.09925296894682E-01,
 5.12560724751825E-01,
 5.15191332900113E-01,
 5.17817096603419E-01,
 5.20437991171175E-01,
 5.23053991958597E-01,
 5.25665074366915E-01,
 5.28271213843612E-01,
 5.30872385882646E-01,
 5.33468566024689E-01,
 5.36059729857350E-01,
 5.38645853015409E-01,
 5.41226911181042E-01,
 5.43802880084055E-01,
 5.46373735502107E-01,
 5.48939453260942E-01,
 5.51500009234612E-01,
 5.54055379345710E-01,
 5.56605539565590E-01,
 5.59150465914595E-01,
 5.61690134462285E-01,
 5.64224521327658E-01,
 5.66753602679381E-01,
 5.69277354736003E-01,
 5.71795753766193E-01,
 5.74308776088949E-01,
 5.76816398073833E-01,
 5.79318596141180E-01,
 5.81815346762337E-01,
 5.84306626459864E-01,
 5.86792411807775E-01,
 5.89272679431738E-01,
 5.91747406009316E-01,
 5.94216568270168E-01,
 5.96680142996279E-01,
 5.99138107022172E-01,
 6.01590437235130E-01,
 6.04037110575413E-01,
 6.06478104036473E-01,
 6.08913394665169E-01,
 6.11342959561987E-01,
 6.13766775881252E-01,
 6.16184820831346E-01,
 6.18597071674917E-01,
 6.21003505729099E-01,
 6.23404100365722E-01,
 6.25798833011523E-01,
 6.28187681148363E-01,
 6.30570622313436E-01,
 6.32947634099479E-01,
 6.35318694154983E-01,
 6.37683780184409E-01,
 6.40042869948388E-01,
 6.42395941263938E-01,
 6.44742972004667E-01,
 6.47083940100987E-01,
 6.49418823540317E-01,
 6.51747600367290E-01,
 6.54070248683962E-01,
 6.56386746650014E-01,
 6.58697072482966E-01,
 6.61001204458368E-01,
 6.63299120910018E-01,
 6.65590800230156E-01,
 6.67876220869675E-01,
 6.70155361338316E-01,
 6.72428200204874E-01,
 6.74694716097401E-01,
 6.76954887703406E-01,
 6.79208693770049E-01,
 6.81456113104353E-01,
 6.83697124573393E-01,
 6.85931707104500E-01,
 6.88159839685457E-01,
 6.90381501364696E-01,
 6.92596671251498E-01,
 6.94805328516187E-01,
 6.97007452390325E-01,
 6.99203022166912E-01,
 7.01392017200573E-01,
 7.03574416907762E-01,
 7.05750200766945E-01,
 7.07919348318801E-01,
 7.10081839166411E-01,
 7.12237652975450E-01,
 7.14386769474380E-01,
 7.16529168454636E-01,
 7.18664829770820E-01,
 7.20793733340893E-01,
 7.22915859146357E-01,
 7.25031187232445E-01,
 7.27139697708317E-01,
 7.29241370747234E-01,
 7.31336186586753E-01,
 7.33424125528910E-01,
 7.35505167940408E-01,
 7.37579294252796E-01,
 7.39646484962658E-01,
 7.41706720631797E-01,
 7.43759981887411E-01,
 7.45806249422285E-01,
 7.47845503994963E-01,
 7.49877726429935E-01,
 7.51902897617817E-01,
 7.53920998515525E-01,
 7.55932010146464E-01,
 7.57935913600697E-01,
 7.59932690035126E-01,
 7.61922320673673E-01,
 7.63904786807451E-01,
 7.65880069794942E-01,
 7.67848151062174E-01,
 7.69809012102894E-01,
 7.71762634478741E-01,
 7.73708999819421E-01,
 7.75648089822880E-01,
 7.77579886255475E-01,
 7.79504370952146E-01,
 7.81421525816586E-01,
 7.83331332821414E-01,
 7.85233774008339E-01,
 7.87128831488334E-01,
 7.89016487441804E-01,
 7.90896724118749E-01,
 7.92769523838937E-01,
 7.94634868992063E-01,
 7.96492742037924E-01,
 7.98343125506574E-01,
 8.00186001998496E-01,
 8.02021354184760E-01,
 8.03849164807193E-01,
 8.05669416678532E-01,
 8.07482092682590E-01,
 8.09287175774424E-01,
 8.11084648980481E-01,
 8.12874495398771E-01,
 8.14656698199014E-01,
 8.16431240622812E-01,
 8.18198105983793E-01,
 8.19957277667777E-01,
 8.21708739132927E-01,
 8.23452473909909E-01,
 8.25188465602043E-01,
 8.26916697885460E-01,
 8.28637154509252E-01,
 8.30349819295629E-01,
 8.32054676140070E-01,
 8.33751709011470E-01,
 8.35440901952299E-01,
 8.37122239078743E-01,
 8.38795704580861E-01,
 8.40461282722728E-01,
 8.42118957842589E-01,
 8.43768714352997E-01,
 8.45410536740971E-01,
 8.47044409568133E-01,
 8.48670317470856E-01,
 8.50288245160411E-01,
 8.51898177423107E-01,
 8.53500099120434E-01,
 8.55093995189211E-01,
 8.56679850641719E-01,
 8.58257650565850E-01,
 8.59827380125242E-01,
 8.61389024559421E-01,
 8.62942569183937E-01,
 8.64487999390508E-01,
 8.66025300647150E-01,
 8.67554458498318E-01,
 8.69075458565042E-01,
 8.70588286545060E-01,
 8.72092928212954E-01,
 8.73589369420286E-01,
 8.75077596095723E-01,
 8.76557594245180E-01,
 8.78029349951945E-01,
 8.79492849376810E-01,
 8.80948078758203E-01,
 8.82395024412319E-01,
 8.83833672733243E-01,
 8.85264010193084E-01,
 8.86686023342098E-01,
 8.88099698808818E-01,
 8.89505023300176E-01,
 8.90901983601630E-01,
 8.92290566577291E-01,
 8.93670759170039E-01,
 8.95042548401654E-01,
 8.96405921372933E-01,
 8.97760865263813E-01,
 8.99107367333492E-01,
 9.00445414920546E-01,
 9.01774995443053E-01,
 9.03096096398706E-01,
 9.04408705364934E-01,
 9.05712809999018E-01,
 9.07008398038207E-01,
 9.08295457299834E-01,
 9.09573975681426E-01,
 9.10843941160828E-01,
 9.12105341796303E-01,
 9.13358165726655E-01,
 9.14602401171335E-01,
 9.15838036430553E-01,
 9.17065059885390E-01,
 9.18283459997904E-01,
 9.19493225311239E-01,
 9.20694344449735E-01,
 9.21886806119035E-01,
 9.23070599106187E-01,
 9.24245712279755E-01,
 9.25412134589919E-01,
 9.26569855068581E-01,
 9.27718862829470E-01,
 9.28859147068241E-01,
 9.29990697062576E-01,
 9.31113502172291E-01,
 9.32227551839429E-01,
 9.33332835588363E-01,
 9.34429343025893E-01,
 9.35517063841345E-01,
 9.36595987806668E-01,
 9.37666104776528E-01,
 9.38727404688406E-01,
 9.39779877562690E-01,
 9.40823513502773E-01,
 9.41858302695141E-01,
 9.42884235409469E-01,
 9.43901301998711E-01,
 9.44909492899190E-01,
 9.45908798630690E-01,
 9.46899209796544E-01,
 9.47880717083721E-01,
 9.48853311262916E-01,
 9.49816983188636E-01,
 9.50771723799285E-01,
 9.51717524117250E-01,
 9.52654375248986E-01,
 9.53582268385097E-01,
 9.54501194800423E-01,
 9.55411145854120E-01,
 9.56312112989738E-01,
 9.57204087735309E-01,
 9.58087061703418E-01,
 9.58961026591288E-01,
 9.59825974180858E-01,
 9.60681896338854E-01,
 9.61528785016873E-01,
 9.62366632251456E-01,
 9.63195430164162E-01,
 9.64015170961639E-01,
 9.64825846935706E-01,
 9.65627450463418E-01,
 9.66419974007140E-01,
 9.67203410114618E-01,
 9.67977751419048E-01,
 9.68742990639147E-01,
 9.69499120579224E-01,
 9.70246134129237E-01,
 9.70984024264874E-01,
 9.71712784047609E-01,
 9.72432406624770E-01,
 9.73142885229607E-01,
 9.73844213181350E-01,
 9.74536383885274E-01,
 9.75219390832763E-01,
 9.75893227601369E-01,
 9.76557887854873E-01,
 9.77213365343346E-01,
 9.77859653903203E-01,
 9.78496747457266E-01,
 9.79124640014822E-01,
 9.79743325671671E-01,
 9.80352798610194E-01,
 9.80953053099397E-01,
 9.81544083494969E-01,
 9.82125884239335E-01,
 9.82698449861710E-01,
 9.83261774978148E-01,
 9.83815854291591E-01,
 9.84360682591925E-01,
 9.84896254756021E-01,
 9.85422565747792E-01,
 9.85939610618230E-01,
 9.86447384505463E-01,
 9.86945882634794E-01,
 9.87435100318748E-01,
 9.87915032957114E-01,
 9.88385676036994E-01,
 9.88847025132839E-01,
 9.89299075906493E-01,
 9.89741824107235E-01,
 9.90175265571818E-01,
 9.90599396224508E-01,
 9.91014212077121E-01,
 9.91419709229065E-01,
 9.91815883867372E-01,
 9.92202732266734E-01,
 9.92580250789542E-01,
 9.92948435885917E-01,
 9.93307284093745E-01,
 9.93656792038707E-01,
 9.93996956434314E-01,
 9.94327774081936E-01,
 9.94649241870834E-01,
 9.94961356778187E-01,
 9.95264115869120E-01,
 9.95557516296736E-01,
 9.95841555302140E-01,
 9.96116230214462E-01,
 9.96381538450890E-01,
 9.96637477516686E-01,
 9.96884045005218E-01,
 9.97121238597977E-01,
 9.97349056064602E-01,
 9.97567495262899E-01,
 9.97776554138868E-01,
 9.97976230726718E-01,
 9.98166523148891E-01,
 9.98347429616080E-01,
 9.98518948427249E-01,
 9.98681077969658E-01,
 9.98833816718883E-01,
 9.98977163238840E-01,
 9.99111116181823E-01,
 9.99235674288535E-01,
 9.99350836388151E-01,
 9.99456601398400E-01,
 9.99552968325707E-01,
 9.99639936265438E-01,
 9.99717504402375E-01,
 9.99785672011689E-01,
 9.99844438461171E-01,
 9.99893803216942E-01,
 9.99933765860618E-01,
 9.99964326153889E-01,
 9.99985484385029E-01,
 9.99997245054559E-01,
};

double w1024[1024] = {
 7.07007641023286E-06,
 1.64577275794470E-05,
 2.58591246767041E-05,
 3.52614859870591E-05,
 4.46637581289721E-05,
 5.40656828939480E-05,
 6.34671268587462E-05,
 7.28679863189631E-05,
 8.22681667158733E-05,
 9.16675768622420E-05,
 1.01066126973427E-04,
 1.10463727924653E-04,
 1.19860290925976E-04,
 1.29255727359872E-04,
 1.38649948722158E-04,
 1.48042866574970E-04,
 1.57434392525752E-04,
 1.66824438220546E-04,
 1.76212915327698E-04,
 1.85599735542695E-04,
 1.94984810584710E-04,
 2.04368052190897E-04,
 2.13749372116057E-04,
 2.23128682144542E-04,
 2.32505894071353E-04,
 2.41880919718659E-04,
 2.51253670926380E-04,
 2.60624059559071E-04,
 2.69991997505530E-04,
 2.79357396671156E-04,
 2.88720168990281E-04,
 2.98080226425361E-04,
 3.07437480958392E-04,
 3.16791844601072E-04,
 3.26143229390981E-04,
 3.35491547396879E-04,
 3.44836710711733E-04,
 3.54178631462566E-04,
 3.63517221804997E-04,
 3.72852393926725E-04,
 3.82184060043797E-04,
 3.91512132411484E-04,
 4.00836523317010E-04,
 4.10157145075285E-04,
 4.19473910052024E-04,
 4.28786730630117E-04,
 4.38095519245659E-04,
 4.47400188362803E-04,
 4.56700650490939E-04,
 4.65996818171666E-04,
 4.75288603996774E-04,
 4.84575920587498E-04,
 4.93858680617582E-04,
 5.03136796796545E-04,
 5.12410181885385E-04,
 5.21678748678737E-04,
 5.30942410026205E-04,
 5.40201078818535E-04,
 5.49454667992817E-04,
 5.58703090540443E-04,
 5.67946259493075E-04,
 5.77184087932075E-04,
 5.86416489000663E-04,
 5.95643375879327E-04,
 6.04864661805559E-04,
 6.14080260073605E-04,
 6.23290084022715E-04,
 6.32494047053903E-04,
 6.41692062620172E-04,
 6.50884044230265E-04,
 6.60069905449775E-04,
 6.69249559903563E-04,
 6.78422921272659E-04,
 6.87589903295130E-04,
 6.96750419781134E-04,
 7.05904384583631E-04,
 7.15051711628195E-04,
 7.24192314900764E-04,
 7.33326108454920E-04,
 7.42453006397712E-04,
 7.51572922909976E-04,
 7.60685772234428E-04,
 7.69791468681663E-04,
 7.78889926630554E-04,
 7.87981060523671E-04,
 7.97064784876944E-04,
 8.06141014272264E-04,
 8.15209663369753E-04,
 8.24270646888397E-04,
 8.33323879627967E-04,
 8.42369276462309E-04,
 8.51406752332780E-04,
 8.60436222259137E-04,
 8.69457601333921E-04,
 8.78470804727427E-04,
 8.87475747691194E-04,
 8.96472345545519E-04,
 9.05460513695676E-04,
 9.14440167621711E-04,
 9.23411222889211E-04,
 9.32373595138731E-04,
 9.41327200097968E-04,
 9.50271953573317E-04,
 9.59207771454699E-04,
 9.68134569718538E-04,
 9.77052264422159E-04,
 9.85960771712014E-04,
 9.94860007822341E-04,
 1.00374988906699E-03,
 1.01263033185350E-03,
 1.02150125268118E-03,
 1.03036256813234E-03,
 1.03921419488141E-03,
 1.04805604969645E-03,
 1.05688804943624E-03,
 1.06571011104945E-03,
 1.07452215158074E-03,
 1.08332408817338E-03,
 1.09211583805475E-03,
 1.10089731855877E-03,
 1.10966844710793E-03,
 1.11842914122771E-03,
 1.12717931854071E-03,
 1.13591889676568E-03,
 1.14464779372006E-03,
 1.15336592733078E-03,
 1.16207321561385E-03,
 1.17076957669589E-03,
 1.17945492880159E-03,
 1.18812919026181E-03,
 1.19679227951055E-03,
 1.20544411508782E-03,
 1.21408461563801E-03,
 1.22271369991148E-03,
 1.23133128676924E-03,
 1.23993729517905E-03,
 1.24853164421421E-03,
 1.25711425306228E-03,
 1.26568504101946E-03,
 1.27424392749305E-03,
 1.28279083199804E-03,
 1.29132567417257E-03,
 1.29984837375935E-03,
 1.30835885061628E-03,
 1.31685702471817E-03,
 1.32534281615651E-03,
 1.33381614513626E-03,
 1.34227693198243E-03,
 1.35072509713563E-03,
 1.35916056115690E-03,
 1.36758324472367E-03,
 1.37599306863792E-03,
 1.38438995381997E-03,
 1.39277382131236E-03,
 1.40114459228067E-03,
 1.40950218801064E-03,
 1.41784652991506E-03,
 1.42617753953287E-03,
 1.43449513852409E-03,
 1.44279924867379E-03,
 1.45108979190141E-03,
 1.45936669024839E-03,
 1.46762986588409E-03,
 1.47587924110829E-03,
 1.48411473835234E-03,
 1.49233628017345E-03,
 1.50054378926492E-03,
 1.50873718844802E-03,
 1.51691640068232E-03,
 1.52508134905294E-03,
 1.53323195678586E-03,
 1.54136814723803E-03,
 1.54948984390430E-03,
 1.55759697041300E-03,
 1.56568945053394E-03,
 1.57376720816999E-03,
 1.58183016736206E-03,
 1.58987825229910E-03,
 1.59791138729927E-03,
 1.60592949682381E-03,
 1.61393250547877E-03,
 1.62192033801228E-03,
 1.62989291931158E-03,
 1.63785017440616E-03,
 1.64579202847693E-03,
 1.65371840684157E-03,
 1.66162923496855E-03,
 1.66952443846991E-03,
 1.67740394310957E-03,
 1.68526767478630E-03,
 1.69311555956500E-03,
 1.70094752364578E-03,
 1.70876349338258E-03,
 1.71656339528289E-03,
 1.72434715600029E-03,
 1.73211470234455E-03,
 1.73986596127675E-03,
 1.74760085990545E-03,
 1.75531932550293E-03,
 1.76302128548841E-03,
 1.77070666744072E-03,
 1.77837539909104E-03,
 1.78602740832786E-03,
 1.79366262320045E-03,
 1.80128097191283E-03,
 1.80888238282604E-03,
 1.81646678446537E-03,
 1.82403410551138E-03,
 1.83158427480821E-03,
 1.83911722135680E-03,
 1.84663287432951E-03,
 1.85413116304880E-03,
 1.86161201701203E-03,
 1.86907536587136E-03,
 1.87652113944978E-03,
 1.88394926773216E-03,
 1.89135968087075E-03,
 1.89875230918472E-03,
 1.90612708315839E-03,
 1.91348393344497E-03,
 1.92082279086834E-03,
 1.92814358641947E-03,
 1.93544625125824E-03,
 1.94273071671635E-03,
 1.94999691429794E-03,
 1.95724477567783E-03,
 1.96447423269940E-03,
 1.97168521738634E-03,
 1.97887766193131E-03,
 1.98605149870152E-03,
 1.99320666024064E-03,
 2.00034307926925E-03,
 2.00746068867735E-03,
 2.01455942154148E-03,
 2.02163921110775E-03,
 2.02869999080457E-03,
 2.03574169423954E-03,
 2.04276425519439E-03,
 2.04976760764113E-03,
 2.05675168571702E-03,
 2.06371642375583E-03,
 2.07066175626672E-03,
 2.07758761793715E-03,
 2.08449394364589E-03,
 2.09138066844857E-03,
 2.09824772759150E-03,
 2.10509505649866E-03,
 2.11192259078558E-03,
 2.11873026624983E-03,
 2.12551801887992E-03,
 2.13228578484702E-03,
 2.13903350051201E-03,
 2.14576110242907E-03,
 2.15246852733318E-03,
 2.15915571215234E-03,
 2.16582259400942E-03,
 2.17246911021297E-03,
 2.17909519826305E-03,
 2.18570079585613E-03,
 2.19228584087351E-03,
 2.19885027140119E-03,
 2.20539402570728E-03,
 2.21191704226063E-03,
 2.21841925972645E-03,
 2.22490061696160E-03,
 2.23136105301971E-03,
 2.23780050715383E-03,
 2.24421891881208E-03,
 2.25061622763867E-03,
 2.25699237348220E-03,
 2.26334729638282E-03,
 2.26968093658593E-03,
 2.27599323453641E-03,
 2.28228413087476E-03,
 2.28855356644992E-03,
 2.29480148230621E-03,
 2.30102781969655E-03,
 2.30723252007116E-03,
 2.31341552508583E-03,
 2.31957677660302E-03,
 2.32571621668313E-03,
 2.33183378760057E-03,
 2.33792943182845E-03,
 2.34400309204613E-03,
 2.35005471114492E-03,
 2.35608423221796E-03,
 2.36209159857171E-03,
 2.36807675371579E-03,
 2.37403964136836E-03,
 2.37998020546156E-03,
 2.38589839013609E-03,
 2.39179413974051E-03,
 2.39766739883543E-03,
 2.40351811219687E-03,
 2.40934622480221E-03,
 2.41515168185788E-03,
 2.42093442876703E-03,
 2.42669441115703E-03,
 2.43243157486369E-03,
 2.43814586593900E-03,
 2.44383723065239E-03,
 2.44950561548540E-03,
 2.45515096713819E-03,
 2.46077323252401E-03,
 2.46637235878105E-03,
 2.47194829325178E-03,
 2.47750098350921E-03,
 2.48303037734250E-03,
 2.48853642275147E-03,
 2.49401906796806E-03,
 2.49947826143102E-03,
 2.50491395181425E-03,
 2.51032608800819E-03,
 2.51571461909876E-03,
 2.52107949444150E-03,
 2.52642066358050E-03,
 2.53173807628774E-03,
 2.53703168256598E-03,
 2.54230143264121E-03,
 2.54754727695770E-03,
 2.55276916618682E-03,
 2.55796705123037E-03,
 2.56314088320654E-03,
 2.56829061346954E-03,
 2.57341619358882E-03,
 2.57851757537525E-03,
 2.58359471085518E-03,
 2.58864755228792E-03,
 2.59367605216064E-03,
 2.59868016318840E-03,
 2.60365983832199E-03,
 2.60861503072923E-03,
 2.61354569381700E-03,
 2.61845178122628E-03,
 2.62333324681844E-03,
 2.62819004469521E-03,
 2.63302212918633E-03,
 2.63782945485444E-03,
 2.64261197649855E-03,
 2.64736964914049E-03,
 2.65210242804746E-03,
 2.65681026871968E-03,
 2.66149312688404E-03,
 2.66615095850188E-03,
 2.67078371978792E-03,
 2.67539136716838E-03,
 2.67997385731986E-03,
 2.68453114715106E-03,
 2.68906319381063E-03,
 2.69356995468378E-03,
 2.69805138739147E-03,
 2.70250744979281E-03,
 2.70693809998608E-03,
 2.71134329631309E-03,
 2.71572299734804E-03,
 2.72007716190650E-03,
 2.72440574904645E-03,
 2.72870871806567E-03,
 2.73298602850519E-03,
 2.73723764013904E-03,
 2.74146351299268E-03,
 2.74566360732745E-03,
 2.74983788364984E-03,
 2.75398630270810E-03,
 2.75810882549468E-03,
 2.76220541324212E-03,
 2.76627602743325E-03,
 2.77032062978925E-03,
 2.77433918227725E-03,
 2.77833164710970E-03,
 2.78229798674792E-03,
 2.78623816389089E-03,
 2.79015214149258E-03,
 2.79403988274628E-03,
 2.79790135109702E-03,
 2.80173651023348E-03,
 2.80554532409016E-03,
 2.80932775685852E-03,
 2.81308377296635E-03,
 2.81681333709715E-03,
 2.82051641417945E-03,
 2.82419296939464E-03,
 2.82784296816906E-03,
 2.83146637618362E-03,
 2.83506315936535E-03,
 2.83863328389265E-03,
 2.84217671619544E-03,
 2.84569342295454E-03,
 2.84918337110094E-03,
 2.85264652781876E-03,
 2.85608286054211E-03,
 2.85949233695848E-03,
 2.86287492500935E-03,
 2.86623059288592E-03,
 2.86955930903480E-03,
 2.87286104215685E-03,
 2.87613576120488E-03,
 2.87938343538320E-03,
 2.88260403415453E-03,
 2.88579752723907E-03,
 2.88896388460155E-03,
 2.89210307647238E-03,
 2.89521507332991E-03,
 2.89829984591469E-03,
 2.90135736521946E-03,
 2.90438760249078E-03,
 2.90739052923667E-03,
 2.91036611722183E-03,
 2.91331433846327E-03,
 2.91623516524055E-03,
 2.91912857008734E-03,
 2.92199452579698E-03,
 2.92483300541887E-03,
 2.92764398226418E-03,
 2.93042742989883E-03,
 2.93318332215145E-03,
 2.93591163310576E-03,
 2.93861233710930E-03,
 2.94128540876570E-03,
 2.94393082293887E-03,
 2.94654855475493E-03,
 2.94913857959805E-03,
 2.95170087311107E-03,
 2.95423541120511E-03,
 2.95674217004593E-03,
 2.95922112606068E-03,
 2.96167225593780E-03,
 2.96409553663182E-03,
 2.96649094535578E-03,
 2.96885845958480E-03,
 2.97119805705360E-03,
 2.97350971577005E-03,
 2.97579341398965E-03,
 2.97804913024001E-03,
 2.98027684331385E-03,
 2.98247653225941E-03,
 2.98464817639434E-03,
 2.98679175529805E-03,
 2.98890724881328E-03,
 2.99099463705109E-03,
 2.99305390037861E-03,
 2.99508501943394E-03,
 2.99708797511857E-03,
 2.99906274859885E-03,
 3.00100932130493E-03,
 3.00292767493151E-03,
 3.00481779144327E-03,
 3.00667965306330E-03,
 3.00851324228567E-03,
 3.01031854187006E-03,
 3.01209553483908E-03,
 3.01384420448405E-03,
 3.01556453436161E-03,
 3.01725650829598E-03,
 3.01892011037565E-03,
 3.02055532496082E-03,
 3.02216213667060E-03,
 3.02374053039906E-03,
 3.02529049130203E-03,
 3.02681200480728E-03,
 3.02830505660584E-03,
 3.02976963266001E-03,
 3.03120571919657E-03,
 3.03261330271106E-03,
 3.03399236997109E-03,
 3.03534290800491E-03,
 3.03666490411572E-03,
 3.03795834587206E-03,
 3.03922322111186E-03,
 3.04045951793839E-03,
 3.04166722473050E-03,
 3.04284633012984E-03,
 3.04399682304827E-03,
 3.04511869266983E-03,
 3.04621192844330E-03,
 3.04727652009116E-03,
 3.04831245759908E-03,
 3.04931973123067E-03,
 3.05029833150858E-03,
 3.05124824923580E-03,
 3.05216947547876E-03,
 3.05306200157362E-03,
 3.05392581912905E-03,
 3.05476092002130E-03,
 3.05556729639941E-03,
 3.05634494067985E-03,
 3.05709384555052E-03,
 3.05781400396888E-03,
 3.05850540916317E-03,
 3.05916805463293E-03,
 3.05980193414523E-03,
 3.06040704174055E-03,
 3.06098337173030E-03,
 3.06153091869435E-03,
 3.06204967748292E-03,
 3.06253964322010E-03,
 3.06300081129572E-03,
 3.06343317737625E-03,
 3.06383673739388E-03,
 3.06421148755536E-03,
 3.06455742433565E-03,
 3.06487454448296E-03,
 3.06516284501450E-03,
 3.06542232321985E-03,
 3.06565297665797E-03,
 3.06585480316215E-03,
 3.06602780083330E-03,
 3.06617196804462E-03,
 3.06628730343948E-03,
 3.06637380593559E-03,
 3.06643147471682E-03,
 3.06646030924425E-03,
 3.06646030924437E-03,
 3.06643147471720E-03,
 3.06637380593542E-03,
 3.06628730343916E-03,
 3.06617196804391E-03,
 3.06602780083296E-03,
 3.06585480316209E-03,
 3.06565297665887E-03,
 3.06542232321964E-03,
 3.06516284501481E-03,
 3.06487454448249E-03,
 3.06455742433619E-03,
 3.06421148755485E-03,
 3.06383673739395E-03,
 3.06343317737610E-03,
 3.06300081129640E-03,
 3.06253964321993E-03,
 3.06204967748307E-03,
 3.06153091869573E-03,
 3.06098337173134E-03,
 3.06040704174060E-03,
 3.05980193414515E-03,
 3.05916805463111E-03,
 3.05850540916341E-03,
 3.05781400396879E-03,
 3.05709384555064E-03,
 3.05634494067995E-03,
 3.05556729640019E-03,
 3.05476092002213E-03,
 3.05392581912853E-03,
 3.05306200157353E-03,
 3.05216947547951E-03,
 3.05124824923629E-03,
 3.05029833151006E-03,
 3.04931973122950E-03,
 3.04831245759931E-03,
 3.04727652009039E-03,
 3.04621192844542E-03,
 3.04511869267102E-03,
 3.04399682304976E-03,
 3.04284633012975E-03,
 3.04166722473076E-03,
 3.04045951793916E-03,
 3.03922322111064E-03,
 3.03795834587323E-03,
 3.03666490411642E-03,
 3.03534290800505E-03,
 3.03399236997028E-03,
 3.03261330271048E-03,
 3.03120571919622E-03,
 3.02976963265948E-03,
 3.02830505660495E-03,
 3.02681200480852E-03,
 3.02529049130222E-03,
 3.02374053039753E-03,
 3.02216213667127E-03,
 3.02055532496006E-03,
 3.01892011037616E-03,
 3.01725650829628E-03,
 3.01556453436200E-03,
 3.01384420448436E-03,
 3.01209553483907E-03,
 3.01031854186948E-03,
 3.00851324228556E-03,
 3.00667965306292E-03,
 3.00481779144280E-03,
 3.00292767493279E-03,
 3.00100932130502E-03,
 2.99906274859944E-03,
 2.99708797511804E-03,
 2.99508501943382E-03,
 2.99305390037731E-03,
 2.99099463705046E-03,
 2.98890724881437E-03,
 2.98679175529737E-03,
 2.98464817639421E-03,
 2.98247653225987E-03,
 2.98027684331253E-03,
 2.97804913024132E-03,
 2.97579341398857E-03,
 2.97350971576883E-03,
 2.97119805705608E-03,
 2.96885845958469E-03,
 2.96649094535561E-03,
 2.96409553663144E-03,
 2.96167225593810E-03,
 2.95922112605930E-03,
 2.95674217004510E-03,
 2.95423541120646E-03,
 2.95170087311188E-03,
 2.94913857959805E-03,
 2.94654855475502E-03,
 2.94393082293902E-03,
 2.94128540876522E-03,
 2.93861233710984E-03,
 2.93591163310632E-03,
 2.93318332215102E-03,
 2.93042742989927E-03,
 2.92764398226268E-03,
 2.92483300541893E-03,
 2.92199452579710E-03,
 2.91912857008686E-03,
 2.91623516524169E-03,
 2.91331433846461E-03,
 2.91036611722118E-03,
 2.90739052923845E-03,
 2.90438760248990E-03,
 2.90135736521906E-03,
 2.89829984591433E-03,
 2.89521507332959E-03,
 2.89210307647182E-03,
 2.88896388460156E-03,
 2.88579752723825E-03,
 2.88260403415577E-03,
 2.87938343538247E-03,
 2.87613576120349E-03,
 2.87286104215701E-03,
 2.86955930903552E-03,
 2.86623059288662E-03,
 2.86287492500899E-03,
 2.85949233695770E-03,
 2.85608286054223E-03,
 2.85264652781838E-03,
 2.84918337110146E-03,
 2.84569342295346E-03,
 2.84217671619616E-03,
 2.83863328389387E-03,
 2.83506315936573E-03,
 2.83146637618394E-03,
 2.82784296816983E-03,
 2.82419296939456E-03,
 2.82051641417972E-03,
 2.81681333709700E-03,
 2.81308377296685E-03,
 2.80932775685718E-03,
 2.80554532409271E-03,
 2.80173651023141E-03,
 2.79790135109729E-03,
 2.79403988274761E-03,
 2.79015214149283E-03,
 2.78623816389021E-03,
 2.78229798674661E-03,
 2.77833164711081E-03,
 2.77433918227638E-03,
 2.77032062978848E-03,
 2.76627602743414E-03,
 2.76220541324213E-03,
 2.75810882549566E-03,
 2.75398630270915E-03,
 2.74983788364979E-03,
 2.74566360732746E-03,
 2.74146351299281E-03,
 2.73723764013874E-03,
 2.73298602850484E-03,
 2.72870871806682E-03,
 2.72440574904577E-03,
 2.72007716190652E-03,
 2.71572299734737E-03,
 2.71134329631342E-03,
 2.70693809998512E-03,
 2.70250744979153E-03,
 2.69805138739077E-03,
 2.69356995468406E-03,
 2.68906319381195E-03,
 2.68453114714990E-03,
 2.67997385731778E-03,
 2.67539136716692E-03,
 2.67078371978749E-03,
 2.66615095850486E-03,
 2.66149312688270E-03,
 2.65681026871849E-03,
 2.65210242804906E-03,
 2.64736964914004E-03,
 2.64261197649701E-03,
 2.63782945485539E-03,
 2.63302212918663E-03,
 2.62819004469452E-03,
 2.62333324681816E-03,
 2.61845178122490E-03,
 2.61354569381781E-03,
 2.60861503072676E-03,
 2.60365983832142E-03,
 2.59868016318991E-03,
 2.59367605216104E-03,
 2.58864755228797E-03,
 2.58359471085489E-03,
 2.57851757537661E-03,
 2.57341619358900E-03,
 2.56829061346918E-03,
 2.56314088320581E-03,
 2.55796705123158E-03,
 2.55276916618858E-03,
 2.54754727695725E-03,
 2.54230143264117E-03,
 2.53703168256623E-03,
 2.53173807628775E-03,
 2.52642066357919E-03,
 2.52107949444115E-03,
 2.51571461910095E-03,
 2.51032608800214E-03,
 2.50491395181670E-03,
 2.49947826143376E-03,
 2.49401906796890E-03,
 2.48853642275291E-03,
 2.48303037734102E-03,
 2.47750098350958E-03,
 2.47194829325271E-03,
 2.46637235878097E-03,
 2.46077323252395E-03,
 2.45515096713934E-03,
 2.44950561548591E-03,
 2.44383723065259E-03,
 2.43814586593916E-03,
 2.43243157486143E-03,
 2.42669441115832E-03,
 2.42093442876700E-03,
 2.41515168185703E-03,
 2.40934622480436E-03,
 2.40351811219527E-03,
 2.39766739883628E-03,
 2.39179413973972E-03,
 2.38589839013622E-03,
 2.37998020546040E-03,
 2.37403964136767E-03,
 2.36807675371395E-03,
 2.36209159857127E-03,
 2.35608423221879E-03,
 2.35005471114415E-03,
 2.34400309204488E-03,
 2.33792943182748E-03,
 2.33183378760092E-03,
 2.32571621668420E-03,
 2.31957677660258E-03,
 2.31341552508580E-03,
 2.30723252006972E-03,
 2.30102781969754E-03,
 2.29480148230753E-03,
 2.28855356644960E-03,
 2.28228413087623E-03,
 2.27599323453635E-03,
 2.26968093658696E-03,
 2.26334729638438E-03,
 2.25699237347999E-03,
 2.25061622764056E-03,
 2.24421891881170E-03,
 2.23780050715473E-03,
 2.23136105302043E-03,
 2.22490061696096E-03,
 2.21841925972654E-03,
 2.21191704226112E-03,
 2.20539402570679E-03,
 2.19885027140041E-03,
 2.19228584087373E-03,
 2.18570079585557E-03,
 2.17909519826467E-03,
 2.17246911021237E-03,
 2.16582259400977E-03,
 2.15915571215448E-03,
 2.15246852733175E-03,
 2.14576110242848E-03,
 2.13903350051238E-03,
 2.13228578484597E-03,
 2.12551801887919E-03,
 2.11873026624970E-03,
 2.11192259078507E-03,
 2.10509505649932E-03,
 2.09824772759072E-03,
 2.09138066845042E-03,
 2.08449394364585E-03,
 2.07758761793670E-03,
 2.07066175626597E-03,
 2.06371642375685E-03,
 2.05675168571735E-03,
 2.04976760763946E-03,
 2.04276425519488E-03,
 2.03574169423873E-03,
 2.02869999080444E-03,
 2.02163921110830E-03,
 2.01455942154095E-03,
 2.00746068867828E-03,
 2.00034307926844E-03,
 1.99320666024110E-03,
 1.98605149870192E-03,
 1.97887766193175E-03,
 1.97168521738753E-03,
 1.96447423270002E-03,
 1.95724477567692E-03,
 1.94999691429788E-03,
 1.94273071671659E-03,
 1.93544625125829E-03,
 1.92814358641939E-03,
 1.92082279086835E-03,
 1.91348393344591E-03,
 1.90612708315802E-03,
 1.89875230918456E-03,
 1.89135968087038E-03,
 1.88394926773147E-03,
 1.87652113945025E-03,
 1.86907536587113E-03,
 1.86161201701148E-03,
 1.85413116304844E-03,
 1.84663287432958E-03,
 1.83911722135865E-03,
 1.83158427480885E-03,
 1.82403410551116E-03,
 1.81646678446418E-03,
 1.80888238282768E-03,
 1.80128097191179E-03,
 1.79366262320127E-03,
 1.78602740832725E-03,
 1.77837539909151E-03,
 1.77070666744053E-03,
 1.76302128548923E-03,
 1.75531932550263E-03,
 1.74760085990663E-03,
 1.73986596127511E-03,
 1.73211470234471E-03,
 1.72434715600093E-03,
 1.71656339528225E-03,
 1.70876349338168E-03,
 1.70094752364389E-03,
 1.69311555956547E-03,
 1.68526767478677E-03,
 1.67740394310761E-03,
 1.66952443847089E-03,
 1.66162923496928E-03,
 1.65371840684085E-03,
 1.64579202847550E-03,
 1.63785017440639E-03,
 1.62989291931020E-03,
 1.62192033801283E-03,
 1.61393250547946E-03,
 1.60592949682372E-03,
 1.59791138729934E-03,
 1.58987825229945E-03,
 1.58183016736305E-03,
 1.57376720817076E-03,
 1.56568945053163E-03,
 1.55759697041342E-03,
 1.54948984390400E-03,
 1.54136814723955E-03,
 1.53323195678574E-03,
 1.52508134905322E-03,
 1.51691640068124E-03,
 1.50873718844781E-03,
 1.50054378926438E-03,
 1.49233628017467E-03,
 1.48411473835126E-03,
 1.47587924110890E-03,
 1.46762986588333E-03,
 1.45936669024892E-03,
 1.45108979190159E-03,
 1.44279924867527E-03,
 1.43449513852304E-03,
 1.42617753953254E-03,
 1.41784652991542E-03,
 1.40950218801009E-03,
 1.40114459227997E-03,
 1.39277382131245E-03,
 1.38438995381972E-03,
 1.37599306863744E-03,
 1.36758324472292E-03,
 1.35916056115565E-03,
 1.35072509713491E-03,
 1.34227693198203E-03,
 1.33381614513679E-03,
 1.32534281615558E-03,
 1.31685702471716E-03,
 1.30835885061612E-03,
 1.29984837375957E-03,
 1.29132567417327E-03,
 1.28279083199998E-03,
 1.27424392749108E-03,
 1.26568504101921E-03,
 1.25711425306358E-03,
 1.24853164421461E-03,
 1.23993729517846E-03,
 1.23133128676973E-03,
 1.22271369991092E-03,
 1.21408461563738E-03,
 1.20544411508757E-03,
 1.19679227951032E-03,
 1.18812919026233E-03,
 1.17945492880152E-03,
 1.17076957669566E-03,
 1.16207321561431E-03,
 1.15336592733015E-03,
 1.14464779372156E-03,
 1.13591889676466E-03,
 1.12717931854104E-03,
 1.11842914122886E-03,
 1.10966844710825E-03,
 1.10089731855718E-03,
 1.09211583805545E-03,
 1.08332408817243E-03,
 1.07452215158249E-03,
 1.06571011104880E-03,
 1.05688804943635E-03,
 1.04805604969673E-03,
 1.03921419488142E-03,
 1.03036256813123E-03,
 1.02150125268136E-03,
 1.01263033185488E-03,
 1.00374988906585E-03,
 9.94860007821327E-04,
 9.85960771712426E-04,
 9.77052264422795E-04,
 9.68134569717660E-04,
 9.59207771454278E-04,
 9.50271953573758E-04,
 9.41327200098749E-04,
 9.32373595139448E-04,
 9.23411222888536E-04,
 9.14440167621767E-04,
 9.05460513695485E-04,
 8.96472345546678E-04,
 8.87475747691135E-04,
 8.78470804730415E-04,
 8.69457601333032E-04,
 8.60436222257343E-04,
 8.51406752332410E-04,
 8.42369276462284E-04,
 8.33323879627801E-04,
 8.24270646888453E-04,
 8.15209663367756E-04,
 8.06141014274393E-04,
 7.97064784875434E-04,
 7.87981060523813E-04,
 7.78889926629695E-04,
 7.69791468682645E-04,
 7.60685772233688E-04,
 7.51572922910171E-04,
 7.42453006397888E-04,
 7.33326108455152E-04,
 7.24192314901738E-04,
 7.15051711627493E-04,
 7.05904384583324E-04,
 6.96750419779598E-04,
 6.87589903297311E-04,
 6.78422921271645E-04,
 6.69249559903389E-04,
 6.60069905450172E-04,
 6.50884044230452E-04,
 6.41692062619793E-04,
 6.32494047054354E-04,
 6.23290084023235E-04,
 6.14080260073530E-04,
 6.04864661806689E-04,
 5.95643375878241E-04,
 5.86416489001003E-04,
 5.77184087934627E-04,
 5.67946259491305E-04,
 5.58703090539357E-04,
 5.49454667994577E-04,
 5.40201078818336E-04,
 5.30942410025934E-04,
 5.21678748679576E-04,
 5.12410181884893E-04,
 5.03136796798171E-04,
 4.93858680617684E-04,
 4.84575920586738E-04,
 4.75288603996588E-04,
 4.65996818171419E-04,
 4.56700650490529E-04,
 4.47400188363073E-04,
 4.38095519246147E-04,
 4.28786730631049E-04,
 4.19473910050956E-04,
 4.10157145076489E-04,
 4.00836523315398E-04,
 3.91512132411998E-04,
 3.82184060043207E-04,
 3.72852393925009E-04,
 3.63517221803866E-04,
 3.54178631462378E-04,
 3.44836710713311E-04,
 3.35491547396704E-04,
 3.26143229392489E-04,
 3.16791844600928E-04,
 3.07437480957461E-04,
 2.98080226424910E-04,
 2.88720168991130E-04,
 2.79357396670756E-04,
 2.69991997506009E-04,
 2.60624059561570E-04,
 2.51253670927402E-04,
 2.41880919717912E-04,
 2.32505894071436E-04,
 2.23128682144781E-04,
 2.13749372117808E-04,
 2.04368052188910E-04,
 1.94984810584839E-04,
 1.85599735543269E-04,
 1.76212915326645E-04,
 1.66824438219229E-04,
 1.57434392526454E-04,
 1.48042866575177E-04,
 1.38649948722007E-04,
 1.29255727359671E-04,
 1.19860290925334E-04,
 1.10463727925896E-04,
 1.01066126973585E-04,
 9.16675768615691E-05,
 8.22681667172946E-05,
 7.28679863190900E-05,
 6.34671268602081E-05,
 5.40656828936264E-05,
 4.46637581285793E-05,
 3.52614859882101E-05,
 2.58591246768405E-05,
 1.64577275791838E-05,
 7.07007641015600E-06,
};

double x2048[2048] = {
-9.99999310927105E-01,
-9.99996369317744E-01,
-9.99991077143972E-01,
-9.99983433242793E-01,
-9.99973437488208E-01,
-9.99961089869341E-01,
-9.99946390403780E-01,
-9.99929339121415E-01,
-9.99909936060152E-01,
-9.99888181264487E-01,
-9.99864074784947E-01,
-9.99837616677845E-01,
-9.99808807005173E-01,
-9.99777645834535E-01,
-9.99744133239114E-01,
-9.99708269297659E-01,
-9.99670054094467E-01,
-9.99629487719380E-01,
-9.99586570267782E-01,
-9.99541301840591E-01,
-9.99493682544259E-01,
-9.99443712490773E-01,
-9.99391391797650E-01,
-9.99336720587935E-01,
-9.99279698990209E-01,
-9.99220327138579E-01,
-9.99158605172678E-01,
-9.99094533237670E-01,
-9.99028111484247E-01,
-9.98959340068627E-01,
-9.98888219152554E-01,
-9.98814748903300E-01,
-9.98738929493661E-01,
-9.98660761101960E-01,
-9.98580243912042E-01,
-9.98497378113281E-01,
-9.98412163900570E-01,
-9.98324601474330E-01,
-9.98234691040500E-01,
-9.98142432810546E-01,
-9.98047827001455E-01,
-9.97950873835732E-01,
-9.97851573541406E-01,
-9.97749926352027E-01,
-9.97645932506663E-01,
-9.97539592249902E-01,
-9.97430905831851E-01,
-9.97319873508135E-01,
-9.97206495539894E-01,
-9.97090772193788E-01,
-9.96972703741993E-01,
-9.96852290462199E-01,
-9.96729532637611E-01,
-9.96604430556950E-01,
-9.96476984514449E-01,
-9.96347194809854E-01,
-9.96215061748425E-01,
-9.96080585640930E-01,
-9.95943766803652E-01,
-9.95804605558380E-01,
-9.95663102232415E-01,
-9.95519257158564E-01,
-9.95373070675144E-01,
-9.95224543125979E-01,
-9.95073674860396E-01,
-9.94920466233230E-01,
-9.94764917604821E-01,
-9.94607029341009E-01,
-9.94446801813142E-01,
-9.94284235398064E-01,
-9.94119330478124E-01,
-9.93952087441169E-01,
-9.93782506680547E-01,
-9.93610588595103E-01,
-9.93436333589178E-01,
-9.93259742072611E-01,
-9.93080814460738E-01,
-9.92899551174385E-01,
-9.92715952639876E-01,
-9.92530019289024E-01,
-9.92341751559134E-01,
-9.92151149893003E-01,
-9.91958214738916E-01,
-9.91762946550645E-01,
-9.91565345787453E-01,
-9.91365412914086E-01,
-9.91163148400775E-01,
-9.90958552723236E-01,
-9.90751626362666E-01,
-9.90542369805748E-01,
-9.90330783544641E-01,
-9.90116868076984E-01,
-9.89900623905896E-01,
-9.89682051539972E-01,
-9.89461151493282E-01,
-9.89237924285373E-01,
-9.89012370441263E-01,
-9.88784490491443E-01,
-9.88554284971874E-01,
-9.88321754423990E-01,
-9.88086899394687E-01,
-9.87849720436334E-01,
-9.87610218106763E-01,
-9.87368392969271E-01,
-9.87124245592619E-01,
-9.86877776551028E-01,
-9.86628986424181E-01,
-9.86377875797220E-01,
-9.86124445260742E-01,
-9.85868695410805E-01,
-9.85610626848918E-01,
-9.85350240182045E-01,
-9.85087536022602E-01,
-9.84822514988455E-01,
-9.84555177702920E-01,
-9.84285524794762E-01,
-9.84013556898188E-01,
-9.83739274652854E-01,
-9.83462678703856E-01,
-9.83183769701735E-01,
-9.82902548302471E-01,
-9.82619015167480E-01,
-9.82333170963619E-01,
-9.82045016363177E-01,
-9.81754552043880E-01,
-9.81461778688885E-01,
-9.81166696986779E-01,
-9.80869307631578E-01,
-9.80569611322729E-01,
-9.80267608765099E-01,
-9.79963300668986E-01,
-9.79656687750104E-01,
-9.79347770729591E-01,
-9.79036550334004E-01,
-9.78723027295318E-01,
-9.78407202350922E-01,
-9.78089076243620E-01,
-9.77768649721629E-01,
-9.77445923538575E-01,
-9.77120898453492E-01,
-9.76793575230823E-01,
-9.76463954640415E-01,
-9.76132037457520E-01,
-9.75797824462787E-01,
-9.75461316442271E-01,
-9.75122514187419E-01,
-9.74781418495077E-01,
-9.74438030167485E-01,
-9.74092350012273E-01,
-9.73744378842465E-01,
-9.73394117476468E-01,
-9.73041566738082E-01,
-9.72686727456484E-01,
-9.72329600466241E-01,
-9.71970186607297E-01,
-9.71608486724973E-01,
-9.71244501669969E-01,
-9.70878232298360E-01,
-9.70509679471590E-01,
-9.70138844056478E-01,
-9.69765726925209E-01,
-9.69390328955337E-01,
-9.69012651029775E-01,
-9.68632694036804E-01,
-9.68250458870063E-01,
-9.67865946428550E-01,
-9.67479157616617E-01,
-9.67090093343971E-01,
-9.66698754525671E-01,
-9.66305142082127E-01,
-9.65909256939095E-01,
-9.65511100027674E-01,
-9.65110672284309E-01,
-9.64707974650787E-01,
-9.64303008074231E-01,
-9.63895773507102E-01,
-9.63486271907193E-01,
-9.63074504237630E-01,
-9.62660471466873E-01,
-9.62244174568701E-01,
-9.61825614522227E-01,
-9.61404792311877E-01,
-9.60981708927409E-01,
-9.60556365363889E-01,
-9.60128762621704E-01,
-9.59698901706555E-01,
-9.59266783629450E-01,
-9.58832409406711E-01,
-9.58395780059959E-01,
-9.57956896616129E-01,
-9.57515760107449E-01,
-9.57072371571450E-01,
-9.56626732050959E-01,
-9.56178842594096E-01,
-9.55728704254276E-01,
-9.55276318090198E-01,
-9.54821685165852E-01,
-9.54364806550511E-01,
-9.53905683318730E-01,
-9.53444316550343E-01,
-9.52980707330460E-01,
-9.52514856749468E-01,
-9.52046765903021E-01,
-9.51576435892044E-01,
-9.51103867822732E-01,
